{"learner":{"attributes":{"best_iteration":"18","best_ntree_limit":"19","best_score":"15.499995","scikit_learn":"{\"n_estimators\": 100, \"objective\": \"reg:squarederror\", \"max_depth\": 4, \"learning_rate\": null, \"verbosity\": null, \"booster\": null, \"tree_method\": null, \"gamma\": 3.4625586401096294e-06, \"min_child_weight\": null, \"max_delta_step\": null, \"subsample\": 0.8776840962828512, \"colsample_bytree\": 0.9860960465630069, \"colsample_bylevel\": null, \"colsample_bynode\": null, \"reg_alpha\": null, \"reg_lambda\": null, \"scale_pos_weight\": null, \"base_score\": null, \"missing\": NaN, \"num_parallel_tree\": null, \"kwargs\": {\"min_sample_weight\": 2.2596596608740787, \"alpha\": 0.0001374641651407281, \"eta\": 0.07998970719169957, \"lambda\": 0.0024966053245291764}, \"random_state\": null, \"n_jobs\": null, \"monotone_constraints\": null, \"interaction_constraints\": null, \"importance_type\": \"gain\", \"gpu_id\": null, \"validate_parameters\": null, \"evals_result_\": {\"validation_0\": {\"rmse\": [87.021751, 80.168861, 73.912285, 68.05233, 62.831421, 58.012226, 53.45866, 49.399227, 45.588474, 42.093708, 38.843586, 35.839409, 33.090187, 30.52117, 28.226959, 26.188932, 24.211403, 22.381075, 20.759134, 19.24773, 17.906979, 16.676245, 15.549861, 14.560779, 13.605889, 12.714436, 11.914336, 11.156533, 10.487656, 9.854864, 9.260581, 8.778116, 8.314049, 7.866126, 7.474396, 7.080872, 6.699513, 6.398645, 6.117766]}, \"validation_1\": {\"rmse\": [55.913727, 50.404179, 45.806728, 41.340881, 37.313587, 33.366543, 30.061472, 27.297136, 24.975939, 22.909489, 21.569544, 19.97584, 18.581057, 17.551397, 16.817148, 16.080936, 15.864476, 15.692369, 15.499995, 15.54818, 15.796642, 16.24474, 16.532242, 16.99585, 17.348646, 17.683241, 18.138536, 18.674896, 18.918316, 19.228121, 19.6688, 19.961655, 20.144722, 20.338936, 20.681767, 20.984995, 21.125378, 21.461582, 21.576424]}}, \"_estimator_type\": \"regressor\"}"},"feature_names":["week","soldout","kcal","event","payday","weather","precipitation","temperature","holiday","kcal_isna","carry","remarks_isna","event_isna","weather_before1","payday_before1","payday_after1","year","month","quarter","day","sale_before1","moving_avg","temperature_avg"],"feature_types":["int","int","float","int","int","int","float","float","int","int","int","int","int","int","int","int","int","float","int","float","float","float","float"],"gradient_booster":{"model":{"gbtree_model_param":{"num_trees":"39","size_leaf_vector":"0"},"tree_info":[0,0,0,0,0,0,0,0,0,0,0,0,0,0,0,0,0,0,0,0,0,0,0,0,0,0,0,0,0,0,0,0,0,0,0,0,0,0,0],"trees":[{"base_weights":[9.0445564E1,7.0655075E1,1.0718716E2,6.730077E1,1.1640308E2,9.58982E1,1.15457054E2,7.5700775E1,6.293862E1,1.0523713E2,1.2184783E2,9.9065926E1,7.577023E1,1.19728035E2,9.405301E1,8.06635E1,5.745214E1,6.0683254E1,7.080385E1,9.326907E1,1.1524243E2,8.628445E1,7.041203E1,1.2783461E2,1.1333692E2,8.944414E1,1.12219696E2],"categories":[],"categories_nodes":[],"categories_segments":[],"categories_sizes":[],"default_left":[true,true,true,true,true,true,true,true,true,false,false,true,true,true,true,false,false,false,false,false,false,false,false,false,false,false,false],"id":0,"left_children":[1,3,5,7,9,11,13,15,17,-1,-1,19,21,23,25,-1,-1,-1,-1,-1,-1,-1,-1,-1,-1,-1,-1],"loss_changes":[3.1789E4,6.7327188E3,4.8271875E3,1.4905E3,1.5049219E2,1.384125E3,2.7145938E3,1.2565156E3,4.6825E2,0E0,0E0,1.7550469E3,1.5396289E2,1.2591562E3,3.9376172E2,0E0,0E0,0E0,0E0,0E0,0E0,0E0,0E0,0E0,0E0,0E0,0E0],"parents":[2147483647,0,0,1,1,2,2,3,3,4,4,5,5,6,6,7,7,8,8,11,11,12,12,13,13,14,14],"right_children":[2,4,6,8,10,12,14,16,18,-1,-1,20,22,24,26,-1,-1,-1,-1,-1,-1,-1,-1,-1,-1,-1,-1],"split_conditions":[8.73E1,5E-1,1.03100006E2,1.895E1,2.115E1,1.165E2,3.5E0,9.1301285E1,7.833333E-1,8.417888E0,9.7465725E0,5E-1,2.5E0,5.5E-1,1E0,6.4522495E0,4.59558E0,4.854036E0,5.663579E0,7.460566E0,9.218208E0,6.901868E0,5.632238E0,1.0225453E1,9.065787E0,7.1546106E0,8.97642E0],"split_indices":[21,10,21,7,7,20,0,17,19,0,0,8,0,19,3,0,0,0,0,0,0,0,0,0,0,0,0],"split_type":[0,0,0,0,0,0,0,0,0,0,0,0,0,0,0,0,0,0,0,0,0,0,0,0,0,0,0],"sum_hessian":[9.6E1,4.4E1,5.2E1,4.1E1,3E0,2.2E1,3E1,1.4E1,2.7E1,1E0,2E0,1.9E1,3E0,2.5E1,5E0,1.1E1,3E0,2.1E1,6E0,1.4E1,5E0,1E0,2E0,1.1E1,1.4E1,4E0,1E0],"tree_param":{"num_deleted":"0","num_feature":"23","num_nodes":"27","size_leaf_vector":"0"}},{"base_weights":[8.2545105E1,6.49469E1,9.697167E1,6.2999798E1,1.0278939E2,1.140771E2,9.32101E1,8.449498E1,6.053735E1,9.68402E1,1.0848245E2,8.9669785E1,1.2101615E2,8.466822E1,1.0057672E2,9.6300896E1,4.892547E1,5.9740093E1,8.742756E1,8.2076744E1,9.703938E1,1.1851404E2,1.271158E2,8.2801056E1,1.1798708E2,1.0645278E2,8.486945E1],"categories":[],"categories_nodes":[],"categories_segments":[],"categories_sizes":[],"default_left":[true,true,true,true,true,true,true,true,true,false,false,true,true,true,true,false,false,false,false,false,false,false,false,false,false,false,false],"id":1,"left_children":[1,3,5,7,9,11,13,15,17,-1,-1,19,21,23,25,-1,-1,-1,-1,-1,-1,-1,-1,-1,-1,-1,-1],"loss_changes":[2.3088125E4,3.0049844E3,3.1907188E3,2.0516406E3,4.1566406E1,1.4975703E3,2.5588125E3,1.6689883E3,7.3734375E2,0E0,0E0,9.2146484E1,6.922656E1,1.15775E3,2.0081875E3,0E0,0E0,0E0,0E0,0E0,0E0,0E0,0E0,0E0,0E0,0E0,0E0],"parents":[2147483647,0,0,1,1,2,2,3,3,4,4,5,5,6,6,7,7,8,8,11,11,12,12,13,13,14,14],"right_children":[2,4,6,8,10,12,14,16,18,-1,-1,20,22,24,26,-1,-1,-1,-1,-1,-1,-1,-1,-1,-1,-1,-1],"split_conditions":[8.73E1,5E-1,5E-1,8.1961334E-1,2.27E1,8.650752E1,1.055E2,3E0,4.5E0,7.7462196E0,8.67748E0,3.635E2,4.155E2,5E-1,3.5E0,7.7030807E0,3.913534E0,4.7785926E0,6.993305E0,6.5652947E0,7.762152E0,9.479903E0,1.0167955E1,6.6232324E0,9.437753E0,8.515127E0,6.788683E0],"split_indices":[21,9,0,22,7,17,21,0,6,0,0,2,2,9,0,0,0,0,0,0,0,0,0,0,0,0,0],"split_type":[0,0,0,0,0,0,0,0,0,0,0,0,0,0,0,0,0,0,0,0,0,0,0,0,0,0,0],"sum_hessian":[9.1E1,4.1E1,5E1,3.9E1,2E0,9E0,4.1E1,4E0,3.5E1,1E0,1E0,2E0,7E0,1.9E1,2.2E1,3E0,1E0,3.4E1,1E0,1E0,1E0,5E0,2E0,1.8E1,1E0,1.6E1,6E0],"tree_param":{"num_deleted":"0","num_feature":"23","num_nodes":"27","size_leaf_vector":"0"}},{"base_weights":[7.681151E1,6.328608E1,9.323051E1,6.1064747E1,9.874703E1,1.0940387E2,8.941725E1,7.0622856E1,5.5817932E1,8.911327E1,1.0344674E2,8.929656E1,1.1224346E2,9.274588E1,7.857361E1,8.0681206E1,6.5119415E1,5.386115E1,7.402122E1,1.0884823E2,1.1667611E2,8.213452E1,1.0333943E2,1.0266125E2,7.050502E1],"categories":[],"categories_nodes":[],"categories_segments":[],"categories_sizes":[],"default_left":[true,true,true,true,true,true,true,true,true,false,false,false,true,true,true,false,false,false,false,false,false,false,false,false,false],"id":2,"left_children":[1,3,5,7,9,11,13,15,17,-1,-1,-1,19,21,23,-1,-1,-1,-1,-1,-1,-1,-1,-1,-1],"loss_changes":[2.0638625E4,4.0024219E3,2.5659688E3,2.3974531E3,1.1290039E2,4.3185938E2,1.2090938E3,9.280469E2,1.0943359E3,0E0,0E0,0E0,7.365625E1,2.9017812E3,1.5372148E3,0E0,0E0,0E0,0E0,0E0,0E0,0E0,0E0,0E0,0E0],"parents":[2147483647,0,0,1,1,2,2,3,3,4,4,5,5,6,6,7,7,8,8,12,12,13,13,14,14],"right_children":[2,4,6,8,10,12,14,16,18,-1,-1,-1,20,22,24,-1,-1,-1,-1,-1,-1,-1,-1,-1,-1],"split_conditions":[9.7E1,5E-1,5E-1,1.895E1,2.115E1,8.7145615E1,3.5E0,8.52521E1,8.75E1,7.1281447E0,8.274674E0,7.142806E0,4.155E2,1.102E2,4.175E2,6.453666E0,5.2088833E0,4.3083377E0,5.9209356E0,8.706738E0,9.332888E0,6.5699162E0,8.266091E0,8.2118435E0,5.639676E0],"split_indices":[21,10,0,7,7,17,0,17,21,0,0,0,2,21,2,0,0,0,0,0,0,0,0,0,0],"split_type":[0,0,0,0,0,0,0,0,0,0,0,0,0,0,0,0,0,0,0,0,0,0,0,0,0],"sum_hessian":[9.3E1,5.1E1,4.2E1,4.8E1,3E0,8E0,3.4E1,1.7E1,3.1E1,1E0,2E0,1E0,7E0,2.6E1,8E0,6E0,1.1E1,2.8E1,3E0,4E0,3E0,1.3E1,1.3E1,2E0,6E0],"tree_param":{"num_deleted":"0","num_feature":"23","num_nodes":"25","size_leaf_vector":"0"}},{"base_weights":[7.0548615E1,5.5379257E1,8.396435E1,5.2898643E1,9.08611E1,8.763782E1,7.025554E1,6.666193E1,5.021801E1,8.2002884E1,9.518238E1,8.1583786E1,9.811614E1,8.695168E1,6.3969288E1,7.907274E1,5.0062138E1,4.94716E1,7.615406E1,9.157251E1,9.855508E1,9.6290245E1,7.615367E1,9.0016945E1,1.0104019E2,9.445964E1,7.173779E1,5.2754326E1,6.768409E1],"categories":[],"categories_nodes":[],"categories_segments":[],"categories_sizes":[],"default_left":[true,true,true,true,true,true,true,true,true,false,true,true,true,true,true,false,false,false,false,false,false,false,false,false,false,false,false,false,false],"id":3,"left_children":[1,3,5,7,9,11,13,15,17,-1,19,21,23,25,27,-1,-1,-1,-1,-1,-1,-1,-1,-1,-1,-1,-1,-1,-1],"loss_changes":[1.9932656E4,4.0369688E3,2.6034062E3,1.5781719E3,9.5421875E1,2.581E3,1.1408711E3,1.4327344E3,6.875547E2,0E0,1.8222656E0,2.0581719E3,3.325625E2,3.2601953E2,3.244668E2,0E0,0E0,0E0,0E0,0E0,0E0,0E0,0E0,0E0,0E0,0E0,0E0,0E0,0E0],"parents":[2147483647,0,0,1,1,2,2,3,3,4,4,5,5,6,6,7,7,8,8,10,10,11,11,12,12,13,13,14,14],"right_children":[2,4,6,8,10,12,14,16,18,-1,20,22,24,26,28,-1,-1,-1,-1,-1,-1,-1,-1,-1,-1,-1,-1,-1,-1],"split_conditions":[8.73E1,5E-1,3.5E0,8.604804E-1,2.115E1,1.102E2,5E-1,2.5E0,4.5E0,6.5593867E0,1E0,5E-1,1.06E2,4.14E2,1.01899994E2,6.3250055E0,4.004456E0,3.957219E0,6.0915413E0,7.324858E0,7.883392E0,7.7022285E0,6.09151E0,7.2004294E0,8.082175E0,7.555799E0,5.738285E0,4.2198033E0,5.4140306E0],"split_indices":[21,10,0,22,7,21,11,0,6,0,3,0,20,2,21,0,0,0,0,0,0,0,0,0,0,0,0,0,0],"split_type":[0,0,0,0,0,0,0,0,0,0,0,0,0,0,0,0,0,0,0,0,0,0,0,0,0,0,0,0,0],"sum_hessian":[9.8E1,4.6E1,5.2E1,4.3E1,3E0,4.1E1,1.1E1,7E0,3.6E1,1E0,2E0,2.6E1,1.5E1,3E0,8E0,4E0,3E0,3.5E1,1E0,1E0,1E0,7E0,1.9E1,4E0,1.1E1,2E0,1E0,2E0,6E0],"tree_param":{"num_deleted":"0","num_feature":"23","num_nodes":"29","size_leaf_vector":"0"}},{"base_weights":[6.406329E1,5.2006363E1,7.723801E1,4.984686E1,8.361125E1,8.1106514E1,6.445487E1,4.8724903E1,7.3317795E1,7.545983E1,8.758774E1,7.506963E1,9.0377815E1,8.000751E1,5.7763287E1,3.785648E1,5.053355E1,7.6375175E1,7.007768E1,8.426589E1,9.069132E1,8.804823E1,7.07295E1,7.610276E1,9.155131E1,8.691326E1,6.6013794E1,4.8539787E1,6.1426594E1],"categories":[],"categories_nodes":[],"categories_segments":[],"categories_sizes":[],"default_left":[true,true,true,true,true,true,true,true,true,false,true,true,true,true,true,false,false,false,false,false,false,false,false,false,false,false,false,false,false],"id":4,"left_children":[1,3,5,7,9,11,13,15,17,-1,19,21,23,25,27,-1,-1,-1,-1,-1,-1,-1,-1,-1,-1,-1,-1,-1,-1],"loss_changes":[1.4286531E4,3.1975469E3,2.1134844E3,1.1497969E3,8.079883E1,1.8301719E3,1.029418E3,8.208594E2,6.455078E0,0E0,1.5419922E0,1.1111406E3,2.0039844E2,2.7580664E2,2.2914453E2,0E0,0E0,0E0,0E0,0E0,0E0,0E0,0E0,0E0,0E0,0E0,0E0,0E0,0E0],"parents":[2147483647,0,0,1,1,2,2,3,3,4,4,5,5,6,6,7,7,8,8,10,10,11,11,12,12,13,13,14,14],"right_children":[2,4,6,8,10,12,14,16,18,-1,20,22,24,26,28,-1,-1,-1,-1,-1,-1,-1,-1,-1,-1,-1,-1,-1,-1],"split_conditions":[9.4E1,5E-1,3.5E0,4.25E0,2.115E1,1.102E2,5E-1,3.46E2,3E0,6.03601E0,1E0,5E-1,1.0993304E2,4.14E2,1.01899994E2,3.0281289E0,4.042164E0,6.109228E0,5.6054935E0,6.740404E0,7.2543726E0,7.0429525E0,5.657632E0,6.0874376E0,7.3231626E0,6.9521666E0,5.280424E0,3.8826835E0,4.9134955E0],"split_indices":[21,10,0,6,7,21,11,2,0,0,3,0,17,2,21,0,0,0,0,0,0,0,0,0,0,0,0,0,0],"split_type":[0,0,0,0,0,0,0,0,0,0,0,0,0,0,0,0,0,0,0,0,0,0,0,0,0,0,0,0,0],"sum_hessian":[9E1,4.7E1,4.3E1,4.4E1,3E0,3.3E1,1E1,4.2E1,2E0,1E0,2E0,2E1,1.3E1,3E0,7E0,6E0,3.6E1,1E0,1E0,1E0,1E0,5E0,1.5E1,1E0,1.2E1,2E0,1E0,2E0,5E0],"tree_param":{"num_deleted":"0","num_feature":"23","num_nodes":"29","size_leaf_vector":"0"}},{"base_weights":[5.918485E1,4.7961567E1,7.040477E1,4.6737232E1,7.358226E1,7.400119E1,5.640202E1,4.3359238E1,5.6245018E1,6.943885E1,7.7542274E1,6.790281E1,8.313502E1,4.4661945E1,5.9739185E1,5.2587875E1,4.0143913E1,5.2917152E1,6.5067894E1,8.8727516E1,6.5699356E1,8.7064995E1,7.3261856E1,4.2396385E1,4.681614E1,7.383063E1,5.736086E1],"categories":[],"categories_nodes":[],"categories_segments":[],"categories_sizes":[],"default_left":[true,true,true,true,true,true,true,true,true,false,false,true,true,true,true,false,false,false,false,false,false,false,false,false,false,false,false],"id":5,"left_children":[1,3,5,7,9,11,13,15,17,-1,-1,19,21,23,25,-1,-1,-1,-1,-1,-1,-1,-1,-1,-1,-1,-1],"loss_changes":[1.1073219E4,1.3716875E3,2.2055156E3,1.3429062E3,1.9393555E1,1.9355625E3,3.460293E2,9.1465625E2,3.144375E2,0E0,0E0,9.4914844E2,5.27375E2,4.80542E0,2.240918E2,0E0,0E0,0E0,0E0,0E0,0E0,0E0,0E0,0E0,0E0,0E0,0E0],"parents":[2147483647,0,0,1,1,2,2,3,3,4,4,5,5,6,6,7,7,8,8,11,11,12,12,13,13,14,14],"right_children":[2,4,6,8,10,12,14,16,18,-1,-1,20,22,24,26,-1,-1,-1,-1,-1,-1,-1,-1,-1,-1,-1,-1],"split_conditions":[9.37E1,5E-1,3.5E0,8.37E1,5E-1,1.102E2,1.01899994E2,6.987946E1,6.5E-1,5.5543933E0,6.202584E0,9.49E1,7.166667E-1,5E-1,5E-1,4.2064886E0,3.2110999E0,4.2328277E0,5.204762E0,7.097288E0,5.2552724E0,6.9643035E0,5.8601947E0,3.3912745E0,3.7448094E0,5.90569E0,4.5882783E0],"split_indices":[21,10,0,21,5,21,21,17,19,0,0,21,19,1,11,0,0,0,0,0,0,0,0,0,0,0,0],"split_type":[0,0,0,0,0,0,0,0,0,0,0,0,0,0,0,0,0,0,0,0,0,0,0,0,0,0,0],"sum_hessian":[8.8E1,4.4E1,4.4E1,4.2E1,2E0,3.5E1,9E0,3.1E1,1.1E1,1E0,1E0,2.1E1,1.4E1,2E0,7E0,8E0,2.3E1,8E0,3E0,2E0,1.9E1,1E1,4E0,1E0,1E0,1E0,6E0],"tree_param":{"num_deleted":"0","num_feature":"23","num_nodes":"27","size_leaf_vector":"0"}},{"base_weights":[5.5855244E1,4.3477448E1,6.453913E1,4.1227108E1,7.117422E1,7.609808E1,6.2075867E1,5.2038155E1,3.913062E1,6.3898285E1,7.472792E1,5.4884533E1,8.1382675E1,5.7830116E1,6.779969E1,6.4881485E1,3.915151E1,3.6908115E1,4.837183E1,7.135514E1,7.791446E1,4.913956E1,6.0492687E1,8.409689E1,6.22209E1,8.651544E1,5.6718628E1,7.405723E1,5.3174007E1],"categories":[],"categories_nodes":[],"categories_segments":[],"categories_sizes":[],"default_left":[true,true,true,true,true,true,true,true,true,false,true,true,true,true,true,false,false,false,false,false,false,false,false,false,false,false,false,false,false],"id":6,"left_children":[1,3,5,7,9,11,13,15,17,-1,19,21,23,25,27,-1,-1,-1,-1,-1,-1,-1,-1,-1,-1,-1,-1,-1,-1],"loss_changes":[1.04195625E4,2.4858984E3,1.6112031E3,8.335742E2,6.569336E1,1.1101602E3,1.1324531E3,9.8710254E2,6.3227734E2,0E0,7.6210938E0,5.7081543E1,4.031172E2,8.4866406E2,1.8207969E3,0E0,0E0,0E0,0E0,0E0,0E0,0E0,0E0,0E0,0E0,0E0,0E0,0E0,0E0],"parents":[2147483647,0,0,1,1,2,2,3,3,4,4,5,5,6,6,7,7,8,8,10,10,11,11,12,12,13,13,14,14],"right_children":[2,4,6,8,10,12,14,16,18,-1,20,22,24,26,28,-1,-1,-1,-1,-1,-1,-1,-1,-1,-1,-1,-1,-1,-1],"split_conditions":[8.73E1,5E-1,5E-1,8.604804E-1,2.115E1,3.625E2,1.102E2,2.5E0,8.37E1,5.111205E0,1E0,3.45E2,1.5E0,1.6666668E-2,3.5E0,5.1898513E0,3.1317177E0,2.9522693E0,3.8692486E0,5.707677E0,6.232355E0,3.930659E0,4.8387923E0,6.726886E0,4.9770317E0,6.920345E0,4.5369067E0,5.923816E0,4.253373E0],"split_indices":[21,9,0,22,7,2,21,0,21,0,3,2,18,19,0,0,0,0,0,0,0,0,0,0,0,0,0,0,0],"split_type":[0,0,0,0,0,0,0,0,0,0,0,0,0,0,0,0,0,0,0,0,0,0,0,0,0,0,0,0,0],"sum_hessian":[9.7E1,4E1,5.7E1,3.7E1,3E0,1E1,4.7E1,6E0,3.1E1,1E0,2E0,2E0,8E0,2.7E1,2E1,3E0,3E0,2.5E1,6E0,1E0,1E0,1E0,1E0,7E0,1E0,1E0,2.6E1,1.4E1,6E0],"tree_param":{"num_deleted":"0","num_feature":"23","num_nodes":"29","size_leaf_vector":"0"}},{"base_weights":[4.9534267E1,3.8605694E1,5.9149002E1,3.7329292E1,6.533014E1,6.912691E1,5.633047E1,4.919917E1,3.4951973E1,5.8799812E1,7.1697624E1,5.0505276E1,7.3249886E1,5.506114E1,7.1503975E1,5.9053085E1,3.6022396E1,4.2381058E1,3.309108E1,4.521869E1,5.5665947E1,5.7256264E1,7.523058E1,4.895964E1,5.8504112E1,6.3489536E1,7.542697E1],"categories":[],"categories_nodes":[],"categories_segments":[],"categories_sizes":[],"default_left":[true,true,true,true,true,true,true,true,true,false,false,true,true,true,true,false,false,false,false,false,false,false,false,false,false,false,false],"id":7,"left_children":[1,3,5,7,9,11,13,15,17,-1,-1,19,21,23,25,-1,-1,-1,-1,-1,-1,-1,-1,-1,-1,-1,-1],"loss_changes":[9.871625E3,1.494875E3,1.3964844E3,1.1809453E3,7.272461E1,8.3547656E2,7.4135156E2,9.039004E2,4.8038672E2,0E0,0E0,4.8334473E1,2.7441406E2,7.4914844E2,8.242578E1,0E0,0E0,0E0,0E0,0E0,0E0,0E0,0E0,0E0,0E0,0E0,0E0],"parents":[2147483647,0,0,1,1,2,2,3,3,4,4,5,5,6,6,7,7,8,8,11,11,12,12,13,13,14,14],"right_children":[2,4,6,8,10,12,14,16,18,-1,-1,20,22,24,26,-1,-1,-1,-1,-1,-1,-1,-1,-1,-1,-1,-1],"split_conditions":[8.73E1,5E-1,5E-1,8.604804E-1,1E0,3.625E2,5E-1,2.5E0,5E-1,4.70338E0,5.735072E0,3.45E2,8.650752E1,1.023E2,2.5E0,4.723639E0,2.881421E0,3.3900485E0,2.646946E0,3.6170297E0,4.452703E0,4.5799117E0,6.0176725E0,3.9162674E0,4.679727E0,5.0785093E0,6.0333815E0],"split_indices":[21,10,0,22,3,2,15,0,0,0,0,2,17,21,0,0,0,0,0,0,0,0,0,0,0,0,0],"split_type":[0,0,0,0,0,0,0,0,0,0,0,0,0,0,0,0,0,0,0,0,0,0,0,0,0,0,0],"sum_hessian":[9.4E1,4.4E1,5E1,4.2E1,2E0,1.1E1,3.9E1,7E0,3.5E1,1E0,1E0,2E0,9E0,3.6E1,3E0,4E0,3E0,7E0,2.8E1,1E0,1E0,1E0,8E0,1.3E1,2.3E1,1E0,2E0],"tree_param":{"num_deleted":"0","num_feature":"23","num_nodes":"27","size_leaf_vector":"0"}},{"base_weights":[4.6559334E1,3.655858E1,5.501935E1,3.4806694E1,6.045212E1,6.566272E1,5.215998E1,4.272114E1,3.288495E1,5.4108147E1,6.3552628E1,4.7208065E1,6.974951E1,5.0890957E1,6.8178535E1,2.324342E1,4.920133E1,3.2198856E1,5.4704865E1,6.0970013E1,6.597684E1,4.1610664E1,5.268776E1,6.492928E1,7.357134E1,7.570581E1,5.0215218E1,7.3336914E1,6.5511055E1],"categories":[],"categories_nodes":[],"categories_segments":[],"categories_sizes":[],"default_left":[true,true,true,true,true,true,true,true,true,false,true,true,true,true,true,false,false,false,false,false,false,false,false,false,false,false,false,false,false],"id":8,"left_children":[1,3,5,7,9,11,13,15,17,-1,19,21,23,25,27,-1,-1,-1,-1,-1,-1,-1,-1,-1,-1,-1,-1,-1,-1],"loss_changes":[8.1173906E3,1.836625E3,1.5740469E3,6.201094E2,5.045703E1,8.215742E2,8.248125E2,1.0072041E3,4.8965234E2,0E0,2.4765625E0,5.5934082E1,1.5389844E2,6.277344E2,2.9299805E1,0E0,0E0,0E0,0E0,0E0,0E0,0E0,0E0,0E0,0E0,0E0,0E0,0E0,0E0],"parents":[2147483647,0,0,1,1,2,2,3,3,4,4,5,5,6,6,7,7,8,8,10,10,11,11,12,12,13,13,14,14],"right_children":[2,4,6,8,10,12,14,16,18,-1,20,22,24,26,28,-1,-1,-1,-1,-1,-1,-1,-1,-1,-1,-1,-1,-1,-1],"split_conditions":[8.73E1,5E-1,5E-1,1.805E1,2.115E1,8.650752E1,4.49E2,3.37E2,4.5E0,4.328095E0,1E0,3.635E2,7.7E0,1.6666668E-2,6.3500004E0,1.8592343E0,3.9356E0,2.5755773E0,4.3758264E0,4.8769736E0,5.277468E0,3.328425E0,4.2144785E0,5.1936746E0,5.88495E0,6.0556855E0,4.0167007E0,5.8661985E0,5.24021E0],"split_indices":[21,10,0,7,7,17,2,2,6,0,3,2,7,19,7,0,0,0,0,0,0,0,0,0,0,0,0,0,0],"split_type":[0,0,0,0,0,0,0,0,0,0,0,0,0,0,0,0,0,0,0,0,0,0,0,0,0,0,0,0,0],"sum_hessian":[9.6E1,4.4E1,5.2E1,4.1E1,3E0,1.1E1,4.1E1,8E0,3.3E1,1E0,2E0,2E0,9E0,3.8E1,3E0,2E0,6E0,3.2E1,1E0,1E0,1E0,1E0,1E0,4E0,5E0,1E0,3.7E1,1E0,2E0],"tree_param":{"num_deleted":"0","num_feature":"23","num_nodes":"29","size_leaf_vector":"0"}},{"base_weights":[4.337895E1,5.0672832E1,3.3277122E1,3.5849823E1,5.2523743E1,3.1410767E1,5.5628624E1,2.7600737E1,4.406905E1,6.2332443E1,4.9938576E1,2.9024395E1,3.7606525E1,4.979083E1,5.8481735E1,2.2206469E1,3.0266754E1,3.8290527E1,4.6906902E1,5.694442E1,6.768933E1,4.354122E1,5.2886734E1,3.0205246E1,1.4834128E1,4.013111E1,2.7470663E1,5.6105186E1,6.0712505E1],"categories":[],"categories_nodes":[],"categories_segments":[],"categories_sizes":[],"default_left":[true,true,true,true,true,true,true,true,true,true,true,true,true,false,true,false,false,false,false,false,false,false,false,false,false,false,false,false,false],"id":9,"left_children":[1,3,5,7,9,11,13,15,17,19,21,23,25,-1,27,-1,-1,-1,-1,-1,-1,-1,-1,-1,-1,-1,-1,-1,-1],"loss_changes":[6.8483438E3,1.4769062E3,1.6226523E3,4.039292E2,1.2094219E3,5.295781E2,4.272461E1,4.1494385E1,4.4740723E1,2.790625E2,7.109844E2,4.345879E2,2.5319043E2,0E0,2.0957031E0,0E0,0E0,0E0,0E0,0E0,0E0,0E0,0E0,0E0,0E0,0E0,0E0,0E0,0E0],"parents":[2147483647,0,0,1,1,2,2,3,3,4,4,5,5,6,6,7,7,8,8,9,9,10,10,11,11,12,12,14,14],"right_children":[2,4,6,8,10,12,14,16,18,20,22,24,26,-1,28,-1,-1,-1,-1,-1,-1,-1,-1,-1,-1,-1,-1,-1,-1],"split_conditions":[1.76E1,3.71E2,5E-1,1.56E1,5E-1,7.93E1,2.115E1,1.5E0,3.45E2,7.90099E-1,1.5E0,1.2373664E0,4.265E2,3.982754E0,1E0,1.776289E0,2.4210289E0,3.062848E0,3.7520695E0,4.5549674E0,5.4144497E0,3.4828496E0,4.2303944E0,2.4161088E0,1.1865776E0,3.2100759E0,2.1973703E0,4.4878373E0,4.8563757E0],"split_indices":[7,2,10,7,0,21,7,0,2,22,0,22,2,0,3,0,0,0,0,0,0,0,0,0,0,0,0,0,0],"split_type":[0,0,0,0,0,0,0,0,0,0,0,0,0,0,0,0,0,0,0,0,0,0,0,0,0,0,0,0,0],"sum_hessian":[9.3E1,5.4E1,3.9E1,6E0,4.8E1,3.6E1,3E0,3E0,3E0,1E1,3.8E1,2.6E1,1E1,1E0,2E0,1E0,2E0,1E0,2E0,5E0,5E0,1.2E1,2.6E1,2.4E1,2E0,8E0,2E0,1E0,1E0],"tree_param":{"num_deleted":"0","num_feature":"23","num_nodes":"29","size_leaf_vector":"0"}},{"base_weights":[4.014222E1,4.7986046E1,3.0284716E1,3.2143497E1,5.0624397E1,2.9281523E1,4.8784077E1,2.2128582E1,3.963616E1,3.7750576E1,5.1976963E1,2.74815E1,3.5795975E1,4.5817993E1,5.162853E1,2.7742514E1,1.929046E1,3.606333E1,4.315951E1,2.2832008E1,4.2700268E1,5.3967525E1,4.1342587E1,2.803482E1,1.1957192E1,4.355025E1,3.3194157E1],"categories":[],"categories_nodes":[],"categories_segments":[],"categories_sizes":[],"default_left":[true,true,true,true,true,true,true,true,true,true,true,true,true,false,false,false,false,false,false,false,false,false,false,false,false,false,false],"id":10,"left_children":[1,3,5,7,9,11,13,15,17,19,21,23,25,-1,-1,-1,-1,-1,-1,-1,-1,-1,-1,-1,-1,-1,-1],"loss_changes":[6.8007656E3,2.0441406E3,7.2025E2,5.232578E2,7.2646875E2,4.3143164E2,1.0975586E1,4.6496338E1,4.6487793E1,2.9311035E2,7.988672E2,2.4828711E2,1.5783301E2,0E0,0E0,0E0,0E0,0E0,0E0,0E0,0E0,0E0,0E0,0E0,0E0,0E0,0E0],"parents":[2147483647,0,0,1,1,2,2,3,3,4,4,5,5,6,6,7,7,8,8,9,9,10,10,11,11,12,12],"right_children":[2,4,6,8,10,12,14,16,18,20,22,24,26,-1,-1,-1,-1,-1,-1,-1,-1,-1,-1,-1,-1,-1,-1],"split_conditions":[1.76E1,3.735E2,5E-1,1.5E1,7.5E1,8.45E1,5E-1,5E-1,1.69E1,7.6E0,1.5E0,2.725E1,2.5E-1,3.664968E0,4.129751E0,2.2191155E0,1.5430384E0,2.8846953E0,3.4523168E0,1.8263257E0,3.415582E0,4.316847E0,3.3069816E0,2.2424972E0,9.5645237E-1,3.483572E0,2.655191E0],"split_indices":[7,2,10,7,20,21,5,1,7,7,8,7,19,0,0,0,0,0,0,0,0,0,0,0,0,0,0],"split_type":[0,0,0,0,0,0,0,0,0,0,0,0,0,0,0,0,0,0,0,0,0,0,0,0,0,0,0],"sum_hessian":[8.8E1,4.9E1,3.9E1,7E0,4.2E1,3.7E1,2E0,3E0,4E0,4E0,3.8E1,2.9E1,8E0,1E0,1E0,1E0,2E0,2E0,2E0,1E0,3E0,3.2E1,6E0,2.8E1,1E0,2E0,6E0],"tree_param":{"num_deleted":"0","num_feature":"23","num_nodes":"27","size_leaf_vector":"0"}},{"base_weights":[3.7590412E1,2.8844444E1,4.4148186E1,1.7302893E1,3.0162148E1,5.0323814E1,4.2292465E1,1.8815414E1,1.5768732E1,4.54981E1,2.872096E1,3.530673E1,5.3317657E1,6.0697704E1,4.1319843E1,1.4939109E1,1.6558947E1,5.1463207E1,4.2455032E1,2.7365507E1,4.178998E1,3.2357796E1,3.8167595E1,4.8645794E1,5.7962887E1,3.4664734E1,4.402772E1],"categories":[],"categories_nodes":[],"categories_segments":[],"categories_sizes":[],"default_left":[true,true,true,true,true,true,true,false,true,true,true,true,true,false,true,false,false,false,false,false,false,false,false,false,false,false,false],"id":11,"left_children":[1,3,5,7,9,11,13,-1,15,17,19,21,23,-1,25,-1,-1,-1,-1,-1,-1,-1,-1,-1,-1,-1,-1],"loss_changes":[5.216164E3,5.9185156E2,5.906328E2,8.542114E0,7.7035156E2,5.3490625E2,7.098203E2,0E0,6.9088745E-1,4.9034668E1,5.64041E2,1.3801025E1,2.1001953E2,0E0,6.8102734E2,0E0,0E0,0E0,0E0,0E0,0E0,0E0,0E0,0E0,0E0,0E0,0E0],"parents":[2147483647,0,0,1,1,2,2,3,3,4,4,5,5,6,6,8,8,9,9,10,10,11,11,12,12,14,14],"right_children":[2,4,6,8,10,12,14,-1,16,18,20,22,24,-1,26,-1,-1,-1,-1,-1,-1,-1,-1,-1,-1,-1,-1],"split_conditions":[8.73E1,3.455E2,5E-1,5E-1,8.1961334E-1,3.625E2,8.344853E1,1.5050396E0,2E0,1E0,5E-1,3.45E2,7.90099E-1,4.8551917E0,1.023E2,1.194975E0,1.3245453E0,4.116527E0,3.3959656E0,2.188959E0,3.3427684E0,2.5882907E0,3.0530148E0,3.8911629E0,4.6364346E0,2.772822E0,3.5217645E0],"split_indices":[21,2,0,8,22,2,17,0,0,0,9,2,22,0,21,0,0,0,0,0,0,0,0,0,0,0,0],"split_type":[0,0,0,0,0,0,0,0,0,0,0,0,0,0,0,0,0,0,0,0,0,0,0,0,0,0,0],"sum_hessian":[9.1E1,3.9E1,5.2E1,4E0,3.5E1,1.2E1,4E1,2E0,2E0,3E0,3.2E1,2E0,1E1,2E0,3.8E1,1E0,1E0,1E0,2E0,2.9E1,3E0,1E0,1E0,5E0,5E0,1.1E1,2.7E1],"tree_param":{"num_deleted":"0","num_feature":"23","num_nodes":"27","size_leaf_vector":"0"}},{"base_weights":[3.3695465E1,2.6545742E1,4.1674545E1,2.5377523E1,4.4033287E1,4.3199993E1,3.006533E1,3.4812656E1,2.3016485E1,3.8827713E1,4.6584354E1,1.8244314E1,4.387319E1,3.6927654E1,2.54635E1,5.148259E1,3.0033142E1,2.0746483E1,2.8911827E1,4.4174618E1,4.887794E1,4.5863102E1,4.0596447E1,2.8683311E1,1.8968346E1],"categories":[],"categories_nodes":[],"categories_segments":[],"categories_sizes":[],"default_left":[true,true,true,true,true,true,true,true,true,false,true,false,true,false,true,false,false,false,false,false,false,false,false,false,false],"id":12,"left_children":[1,3,5,7,9,11,13,15,17,-1,19,-1,21,-1,23,-1,-1,-1,-1,-1,-1,-1,-1,-1,-1],"loss_changes":[5.188758E3,9.7785547E2,7.5828906E2,1.0005E3,3.5345215E1,6.364375E2,1.5561914E2,7.1339453E2,4.8029688E2,0E0,5.6640625E0,0E0,2.3661719E2,0E0,6.142688E1,0E0,0E0,0E0,0E0,0E0,0E0,0E0,0E0,0E0,0E0],"parents":[2147483647,0,0,1,1,2,2,3,3,4,4,5,5,6,6,7,7,8,8,10,10,12,12,14,14],"right_children":[2,4,6,8,10,12,14,16,18,-1,20,-1,22,-1,24,-1,-1,-1,-1,-1,-1,-1,-1,-1,-1],"split_conditions":[9.37E1,5E-1,1.71E1,5E-1,2.115E1,7.5E1,1.035E2,1.69E1,8.41E1,3.1058176E0,1E0,1.4593574E0,6.166667E-1,2.9538324E0,3.95E2,4.1180773E0,2.4023423E0,1.6595051E0,2.3126485E0,3.5335147E0,3.9097323E0,3.6685762E0,3.247298E0,2.2943697E0,1.5172725E0],"split_indices":[21,9,7,0,7,20,20,7,21,0,3,0,19,0,2,0,0,0,0,0,0,0,0,0,0],"split_type":[0,0,0,0,0,0,0,0,0,0,0,0,0,0,0,0,0,0,0,0,0,0,0,0,0],"sum_hessian":[9.1E1,4.8E1,4.3E1,4.5E1,3E0,3.8E1,5E0,9E0,3.6E1,1E0,2E0,1E0,3.7E1,2E0,3E0,2E0,7E0,2.6E1,1E1,1E0,1E0,2.3E1,1.4E1,2E0,1E0],"tree_param":{"num_deleted":"0","num_feature":"23","num_nodes":"25","size_leaf_vector":"0"}},{"base_weights":[3.1441515E1,2.5614563E1,3.794415E1,2.4618681E1,4.051986E1,3.9807777E1,2.9780895E1,3.1675926E1,2.2852291E1,3.572963E1,4.286737E1,3.4082787E1,4.3619923E1,4.6092842E1,2.4326649E1,4.7369644E1,2.7176697E1,2.184347E1,3.9953568E1,4.0649902E1,4.4977947E1,1.6788591E1,3.540962E1,4.825621E1,3.939511E1,4.046845E1,5.160231E1,1.7454851E1,2.5691584E1],"categories":[],"categories_nodes":[],"categories_segments":[],"categories_sizes":[],"default_left":[true,true,true,true,true,true,true,true,true,false,true,true,true,true,true,false,false,false,false,false,false,false,false,false,false,false,false,false,false],"id":13,"left_children":[1,3,5,7,9,11,13,15,17,-1,19,21,23,25,27,-1,-1,-1,-1,-1,-1,-1,-1,-1,-1,-1,-1,-1,-1],"loss_changes":[3.4456953E3,7.100449E2,6.512422E2,5.591797E2,2.992871E1,7.601875E2,7.0916846E2,6.3243945E2,6.1893164E2,0E0,4.7956543E0,3.1981738E2,4.066289E2,5.682617E1,5.517505E1,0E0,0E0,0E0,0E0,0E0,0E0,0E0,0E0,0E0,0E0,0E0,0E0,0E0,0E0],"parents":[2147483647,0,0,1,1,2,2,3,3,4,4,5,5,6,6,7,7,8,8,10,10,11,11,12,12,13,13,14,14],"right_children":[2,4,6,8,10,12,14,16,18,-1,20,22,24,26,28,-1,-1,-1,-1,-1,-1,-1,-1,-1,-1,-1,-1,-1,-1],"split_conditions":[9.37E1,5E-1,3.5E0,5E-1,2.115E1,9.75E1,5E-1,1.69E1,3.75E0,2.8580027E0,1E0,7.5E1,5.5E-1,5E-1,1.01899994E2,3.789084E0,2.173856E0,1.7472528E0,3.1958742E0,3.2515738E0,3.5977728E0,1.3429146E0,2.832405E0,3.8600001E0,3.1512034E0,3.2370594E0,4.1276536E0,1.3962084E0,2.0550623E0],"split_indices":[21,10,0,0,7,20,11,7,6,0,3,20,19,1,21,0,0,0,0,0,0,0,0,0,0,0,0,0,0],"split_type":[0,0,0,0,0,0,0,0,0,0,0,0,0,0,0,0,0,0,0,0,0,0,0,0,0,0,0,0,0],"sum_hessian":[9.1E1,4.8E1,4.3E1,4.5E1,3E0,3.5E1,8E0,9E0,3.6E1,1E0,2E0,1.4E1,2.1E1,2E0,6E0,2E0,7E0,3.4E1,2E0,1E0,1E0,1E0,1.3E1,1E1,1.1E1,1E0,1E0,1E0,5E0],"tree_param":{"num_deleted":"0","num_feature":"23","num_nodes":"29","size_leaf_vector":"0"}},{"base_weights":[2.7838005E1,3.1774847E1,1.996233E1,3.402804E1,2.3623697E1,7.7514696E0,2.1318245E1,3.1410196E1,4.1655296E1,2.0595549E1,4.0232006E1,1.4882149E1,4.1719522E0,1.9498272E1,3.5849663E1,2.9102205E1,3.717145E1,2.9486256E1,4.4081123E1,1.5859646E1,2.329514E1,3.2878746E1,4.7484932E1,2.9120336E0,5.4213443E0,2.008859E1,5.9045625E0,2.731488E1,4.0077614E1],"categories":[],"categories_nodes":[],"categories_segments":[],"categories_sizes":[],"default_left":[true,true,true,true,true,true,true,true,true,true,true,false,true,true,true,false,false,false,false,false,false,false,false,false,false,false,false,false,false],"id":14,"left_children":[1,3,5,7,9,11,13,15,17,19,21,-1,23,25,27,-1,-1,-1,-1,-1,-1,-1,-1,-1,-1,-1,-1,-1,-1],"loss_changes":[2.788961E3,1.1E3,4.9633203E2,9.3522266E2,6.518501E2,7.647928E1,7.12376E2,4.6271875E2,3.510586E2,1.3973926E2,1.02889404E2,0E0,3.111637E0,1.923125E2,1.0560181E2,0E0,0E0,0E0,0E0,0E0,0E0,0E0,0E0,0E0,0E0,0E0,0E0,0E0,0E0],"parents":[2147483647,0,0,1,1,2,2,3,3,4,4,5,5,6,6,7,7,8,8,9,9,10,10,12,12,13,13,14,14],"right_children":[2,4,6,8,10,12,14,16,18,20,22,-1,24,26,28,-1,-1,-1,-1,-1,-1,-1,-1,-1,-1,-1,-1,-1,-1],"split_conditions":[1.895E1,1.5E0,1.16666675E-1,1.13E2,5E-1,4.19E2,1.5E0,5E-1,9.95E1,1.01899994E2,5E-1,1.1904187E0,4.22E2,1.5E0,5E-1,2.327877E0,2.9733336E0,2.358597E0,3.5260363E0,1.2686085E0,1.8633714E0,2.6299613E0,3.798306E0,2.3293272E-1,4.3365175E-1,1.6068805E0,4.7230422E-1,2.1849093E0,3.2057967E0],"split_indices":[7,8,19,21,9,2,8,8,20,21,1,0,2,6,13,0,0,0,0,0,0,0,0,0,0,0,0,0,0],"split_type":[0,0,0,0,0,0,0,0,0,0,0,0,0,0,0,0,0,0,0,0,0,0,0,0,0,0,0,0,0],"sum_hessian":[9E1,6E1,3E1,4.7E1,1.3E1,3E0,2.7E1,3.5E1,1.2E1,1.1E1,2E0,1E0,2E0,2.4E1,3E0,2.5E1,1E1,2E0,1E1,4E0,7E0,1E0,1E0,1E0,1E0,2.3E1,1E0,1E0,2E0],"tree_param":{"num_deleted":"0","num_feature":"23","num_nodes":"29","size_leaf_vector":"0"}},{"base_weights":[2.5468327E1,2.9948149E1,2.0153614E1,1.421468E1,3.0930696E1,1.9092402E1,3.4275425E1,2.0325224E1,1.1137807E1,3.1912409E1,2.4048277E1,2.4195599E1,1.738946E1,3.0255337E1,3.624517E1,1.1673762E1,1.05739765E1,2.8042164E1,3.4811867E1,2.5454018E1,1.6973547E1,2.5848299E1,9.293837E0,1.4849721E1,2.2463951E1,3.8191326E1,3.4208614E1],"categories":[],"categories_nodes":[],"categories_segments":[],"categories_sizes":[],"default_left":[true,true,true,true,true,true,true,false,true,true,true,true,true,false,true,false,false,false,false,false,false,false,false,false,false,false,false],"id":15,"left_children":[1,3,5,7,9,11,13,-1,15,17,19,21,23,-1,25,-1,-1,-1,-1,-1,-1,-1,-1,-1,-1,-1,-1],"loss_changes":[2.2365898E3,7.8733594E2,6.428047E2,5.588159E1,3.2241016E2,3.4658398E2,2.1028564E1,0E0,2.9389954E-1,4.6889062E2,5.8611816E1,2.457378E2,3.8583105E2,0E0,4.665039E0,0E0,0E0,0E0,0E0,0E0,0E0,0E0,0E0,0E0,0E0,0E0,0E0],"parents":[2147483647,0,0,1,1,2,2,3,3,4,4,5,5,6,6,8,8,9,9,10,10,11,11,12,12,14,14],"right_children":[2,4,6,8,10,12,14,-1,16,18,20,22,24,-1,26,-1,-1,-1,-1,-1,-1,-1,-1,-1,-1,-1,-1],"split_conditions":[1.76E1,3.445E2,5E-1,5E-1,1.4416742E0,6.987946E1,2.115E1,1.6258087E0,2.5E0,7.31481E-1,1.5E0,5E-1,7.93E1,2.4201155E0,5E-1,9.3378085E-1,8.458093E-1,2.2430844E0,2.7845912E0,2.0360594E0,1.357709E0,2.0675979E0,7.434113E-1,1.1878248E0,1.7968849E0,3.054913E0,2.7363372E0],"split_indices":[7,2,10,0,22,17,7,0,0,22,13,4,21,0,5,0,0,0,0,0,0,0,0,0,0,0,0],"split_type":[0,0,0,0,0,0,0,0,0,0,0,0,0,0,0,0,0,0,0,0,0,0,0,0,0,0,0],"sum_hessian":[9.4E1,5.1E1,4.3E1,3E0,4.8E1,4E1,3E0,1E0,2E0,4.2E1,6E0,1E1,3E1,1E0,2E0,1E0,1E0,1.8E1,2.4E1,5E0,1E0,9E0,1E0,2E1,1E1,1E0,1E0],"tree_param":{"num_deleted":"0","num_feature":"23","num_nodes":"27","size_leaf_vector":"0"}},{"base_weights":[2.4633245E1,2.0125492E1,2.9139688E1,1.0123758E1,2.13155E1,3.1083084E1,2.1943148E1,1.5098049E1,2.6527326E0,1.1161944E1,2.3006865E1,2.8358915E1,3.4653564E1,1.9824003E1,4.0918427E1,1.637488E1,1.25098295E1,3.8039072E0,1.4948145E0,1.480414E1,9.332713E0,2.4053041E1,1.1488428E1,3.0746647E1,1.4018821E1,2.8391127E1,3.6734695E1,1.6615124E1,2.3822206E1],"categories":[],"categories_nodes":[],"categories_segments":[],"categories_sizes":[],"default_left":[true,true,true,true,true,true,true,true,true,true,true,true,true,true,false,false,false,false,false,false,false,false,false,false,false,false,false,false,false],"id":16,"left_children":[1,3,5,7,9,11,13,15,17,19,21,23,25,27,-1,-1,-1,-1,-1,-1,-1,-1,-1,-1,-1,-1,-1,-1,-1],"loss_changes":[1.9080938E3,5.588887E2,6.5565234E2,1.8580566E2,7.2067773E2,3.5744922E2,4.0018018E2,9.406982E0,2.654336E0,3.9642883E1,4.3314648E2,7.180488E2,2.0594531E2,1.145061E2,0E0,0E0,0E0,0E0,0E0,0E0,0E0,0E0,0E0,0E0,0E0,0E0,0E0,0E0,0E0],"parents":[2147483647,0,0,1,1,2,2,3,3,4,4,5,5,6,6,7,7,8,8,9,9,10,10,11,11,12,12,13,13],"right_children":[2,4,6,8,10,12,14,16,18,20,22,24,26,28,-1,-1,-1,-1,-1,-1,-1,-1,-1,-1,-1,-1,-1,-1,-1],"split_conditions":[9.37E1,1.5E-1,3.5E0,4.19E2,3.455E2,1.102E2,5E-1,2E0,3E0,5.65E1,9.1301285E1,4.21E2,9.85E1,8.15E0,3.273053E0,1.3098218E0,1.0006577E0,3.0427343E-1,1.1956978E-1,1.1841788E0,7.46521E-1,1.9239957E0,9.1895604E-1,2.4594154E0,1.1213614E0,2.270998E0,2.9383976E0,1.3290389E0,1.9055314E0],"split_indices":[21,19,0,2,2,21,9,0,0,20,17,2,20,7,0,0,0,0,0,0,0,0,0,0,0,0,0,0,0],"split_type":[0,0,0,0,0,0,0,0,0,0,0,0,0,0,0,0,0,0,0,0,0,0,0,0,0,0,0,0,0],"sum_hessian":[9.4E1,4.7E1,4.7E1,5E0,4.2E1,3.7E1,1E1,3E0,2E0,6E0,3.6E1,2.1E1,1.6E1,9E0,1E0,2E0,1E0,1E0,1E0,2E0,4E0,3.3E1,3E0,1.8E1,3E0,4E0,1.2E1,5E0,4E0],"tree_param":{"num_deleted":"0","num_feature":"23","num_nodes":"29","size_leaf_vector":"0"}},{"base_weights":[2.2361614E1,2.5294937E1,1.639878E1,2.716975E1,1.8729404E1,1.3652016E1,2.2162128E1,1.3140339E1,2.7766014E1,2.7874784E1,1.5065194E1,1.6611073E1,9.70308E0,2.8041832E1,1.333055E1,1.625017E1,9.997645E0,2.2649954E1,2.9327572E1,3.4220577E1,2.1494173E1,1.3332646E1,1.9093313E1,1.474303E1,2.5921192E1,7.144401E0,1.4810196E1,2.4584156E1,3.1476145E1,2.2159609E1,4.484802E0],"categories":[],"categories_nodes":[],"categories_segments":[],"categories_sizes":[],"default_left":[true,true,true,true,true,true,true,true,true,true,true,true,true,true,true,false,false,false,false,false,false,false,false,false,false,false,false,false,false,false,false],"id":17,"left_children":[1,3,5,7,9,11,13,15,17,19,21,23,25,27,29,-1,-1,-1,-1,-1,-1,-1,-1,-1,-1,-1,-1,-1,-1,-1,-1],"loss_changes":[1.6431445E3,7.7423047E2,4.9002734E2,4.090039E2,4.6817822E2,2.450105E2,5.184614E2,1.9161682E1,3.7383984E2,1.6021704E2,6.9166504E1,2.0778442E2,1.1737268E2,6.933789E1,3.1234174E2,0E0,0E0,0E0,0E0,0E0,0E0,0E0,0E0,0E0,0E0,0E0,0E0,0E0,0E0,0E0,0E0],"parents":[2147483647,0,0,1,1,2,2,3,3,4,4,5,5,6,6,7,7,8,8,9,9,10,10,11,11,12,12,13,13,14,14],"right_children":[2,4,6,8,10,12,14,16,18,20,22,24,26,28,30,-1,-1,-1,-1,-1,-1,-1,-1,-1,-1,-1,-1,-1,-1,-1,-1],"split_conditions":[1.895E1,3.5E0,5E-1,3.445E2,5E-1,5E-1,7.808333E1,5E-1,7.5E1,7.166667E-1,1.34E2,8.1666666E-1,8.25E1,2E0,4.133913E2,1.2998463E0,7.997087E-1,1.8117632E0,2.3459039E0,2.737294E0,1.7193127E0,1.0664746E0,1.5272685E0,1.1792907E0,2.0734286E0,5.7147855E-1,1.1846633E0,1.9664795E0,2.5177677E0,1.7725407E0,3.5873798E-1],"split_indices":[7,0,8,2,11,13,17,0,20,19,20,19,20,0,2,0,0,0,0,0,0,0,0,0,0,0,0,0,0,0,0],"split_type":[0,0,0,0,0,0,0,0,0,0,0,0,0,0,0,0,0,0,0,0,0,0,0,0,0,0,0,0,0,0,0],"sum_hessian":[9.4E1,6.3E1,3.1E1,4.9E1,1.4E1,2.1E1,1E1,2E0,4.7E1,4E0,1E1,1.2E1,9E0,6E0,4E0,1E0,1E0,1.1E1,3.6E1,2E0,2E0,7E0,3E0,1E1,2E0,6E0,3E0,3E0,3E0,2E0,2E0],"tree_param":{"num_deleted":"0","num_feature":"23","num_nodes":"31","size_leaf_vector":"0"}},{"base_weights":[2.0006548E1,2.3231571E1,1.3848389E1,2.4944622E1,1.7232504E1,1.2625992E1,2.6051651E1,2.2594398E1,3.0267136E1,2.564787E1,1.3860782E1,1.0109263E1,1.5914514E1,2.0263216E1,2.891693E1,2.476175E1,1.7387861E1,3.281637E1,2.3240616E1,2.9082325E1,1.5297601E1,1.0134271E1,1.6339851E1,1.2035505E1,5.4825573E0,2.0648691E1,1.2950116E1,2.7048391E1,3.0713314E1],"categories":[],"categories_nodes":[],"categories_segments":[],"categories_sizes":[],"default_left":[true,true,true,true,true,true,true,true,true,true,true,true,true,false,true,false,false,false,false,false,false,false,false,false,false,false,false,false,false],"id":18,"left_children":[1,3,5,7,9,11,13,15,17,19,21,23,25,-1,27,-1,-1,-1,-1,-1,-1,-1,-1,-1,-1,-1,-1,-1,-1],"loss_changes":[1.9058203E3,6.463789E2,4.914795E2,6.112637E2,3.9641748E2,2.4790479E2,4.8328125E1,3.826172E2,2.668164E2,1.4116211E2,9.198889E1,1.513617E2,1.8180469E2,0E0,4.6395264E0,0E0,0E0,0E0,0E0,0E0,0E0,0E0,0E0,0E0,0E0,0E0,0E0,0E0,0E0],"parents":[2147483647,0,0,1,1,2,2,3,3,4,4,5,5,6,6,7,7,8,8,9,9,10,10,11,11,12,12,14,14],"right_children":[2,4,6,8,10,12,14,16,18,20,22,24,26,-1,28,-1,-1,-1,-1,-1,-1,-1,-1,-1,-1,-1,-1,-1,-1],"split_conditions":[1.895E1,3.5E0,5E-1,1.102E2,5E-1,7.4399994E1,2.23E1,9.95E1,7.166667E-1,4.14E2,1.01899994E2,1.5E0,4.166667E-1,1.6208488E0,1E0,1.9806851E0,1.39085E0,2.6249716E0,1.8590101E0,2.3262868E0,1.2236506E0,8.1063735E-1,1.30702E0,9.627166E-1,4.3854815E-1,1.6516829E0,1.035876E0,2.163593E0,2.456749E0],"split_indices":[7,0,9,21,11,21,7,20,19,2,21,13,19,0,3,0,0,0,0,0,0,0,0,0,0,0,0,0,0],"split_type":[0,0,0,0,0,0,0,0,0,0,0,0,0,0,0,0,0,0,0,0,0,0,0,0,0,0,0,0,0],"sum_hessian":[9.6E1,6.3E1,3.3E1,4.9E1,1.4E1,3E1,3E0,3.4E1,1.5E1,4E0,1E1,1.7E1,1.3E1,1E0,2E0,2.4E1,1E1,1.1E1,4E0,3E0,1E0,4E0,6E0,1.2E1,5E0,5E0,8E0,1E0,1E0],"tree_param":{"num_deleted":"0","num_feature":"23","num_nodes":"29","size_leaf_vector":"0"}},{"base_weights":[1.8444057E1,1.4890139E1,2.1997015E1,1.2524587E1,1.8830433E1,2.3654676E1,1.6417135E1,1.3768728E1,4.4340906E0,2.1069937E1,7.6246614E0,2.1062475E1,2.7908768E1,1.4790847E1,3.260255E1,2.0234743E1,1.0892529E1,9.111052E0,-2.4833E-1,3.1591747E1,1.944543E1,5.285394E0,1.2278245E1,2.3191156E1,1.0943045E1,2.8870184E1,1.536945E1,8.928718E0,1.6253119E1],"categories":[],"categories_nodes":[],"categories_segments":[],"categories_sizes":[],"default_left":[true,true,true,true,true,true,true,true,true,true,true,true,true,true,false,false,false,false,false,false,false,false,false,false,false,false,false,false,false],"id":19,"left_children":[1,3,5,7,9,11,13,15,17,19,21,23,25,27,-1,-1,-1,-1,-1,-1,-1,-1,-1,-1,-1,-1,-1,-1,-1],"loss_changes":[1.2113945E3,4.468369E2,4.430254E2,3.018418E2,4.513745E2,4.0656836E2,2.8839893E2,4.8302832E2,8.765953E1,2.5489307E2,3.2520676E1,4.9485938E2,1.6769238E2,8.537598E1,0E0,0E0,0E0,0E0,0E0,0E0,0E0,0E0,0E0,0E0,0E0,0E0,0E0,0E0,0E0],"parents":[2147483647,0,0,1,1,2,2,3,3,4,4,5,5,6,6,7,7,8,8,9,9,10,10,11,11,12,12,13,13],"right_children":[2,4,6,8,10,12,14,16,18,20,22,24,26,28,-1,-1,-1,-1,-1,-1,-1,-1,-1,-1,-1,-1,-1,-1,-1],"split_conditions":[9.37E1,5E-1,1.5E0,9.1301285E1,9.35E1,1.102E2,5E-1,1.895E1,3.81E2,1.69E1,3.51E2,4.21E2,9.333333E-1,1.01899994E2,2.6078684E0,1.6185712E0,8.712902E-1,7.2879034E-1,-1.9863844E-2,2.5270147E0,1.5554343E0,4.2277715E-1,9.8213327E-1,1.8550539E0,8.75331E-1,2.3093176E0,1.2293978E0,7.142055E-1,1.3000822E0],"split_indices":[21,8,8,17,20,21,9,7,2,7,2,2,19,21,0,0,0,0,0,0,0,0,0,0,0,0,0,0,0],"split_type":[0,0,0,0,0,0,0,0,0,0,0,0,0,0,0,0,0,0,0,0,0,0,0,0,0,0,0,0,0],"sum_hessian":[9.6E1,4.8E1,4.8E1,3E1,1.8E1,3.7E1,1.1E1,2.6E1,4E0,1.5E1,3E0,2.3E1,1.4E1,1E1,1E0,8E0,1.8E1,2E0,2E0,2E0,1.3E1,2E0,1E0,1.9E1,4E0,1.3E1,1E0,2E0,8E0],"tree_param":{"num_deleted":"0","num_feature":"23","num_nodes":"29","size_leaf_vector":"0"}},{"base_weights":[1.6713371E1,1.5032759E1,2.2636976E1,1.2876918E1,1.8430786E1,2.4708084E1,1.157966E1,1.1262251E1,1.7878313E1,1.3605181E1,2.0983137E1,1.5035288E1,2.6936943E1,1.2969626E1,8.774214E0,1.5562429E1,9.212934E0,1.36895895E1,1.966794E1,1.9032047E1,2.7446017E0,2.2431396E1,1.0106708E1,1.6604008E1,1.4231136E1,2.7438404E1,2.0865913E1],"categories":[],"categories_nodes":[],"categories_segments":[],"categories_sizes":[],"default_left":[true,true,true,true,true,true,true,true,true,true,true,true,true,false,false,false,false,false,false,false,false,false,false,false,false,false,false],"id":20,"left_children":[1,3,5,7,9,11,13,15,17,19,21,23,25,-1,-1,-1,-1,-1,-1,-1,-1,-1,-1,-1,-1,-1,-1],"loss_changes":[8.553242E2,4.902373E2,4.3445508E2,3.306128E2,3.195459E2,3.4398535E2,1.1421051E1,2.728457E2,7.43042E1,5.30464E2,2.672505E2,3.1934204E0,3.8149414E1,0E0,0E0,0E0,0E0,0E0,0E0,0E0,0E0,0E0,0E0,0E0,0E0,0E0,0E0],"parents":[2147483647,0,0,1,1,2,2,3,3,4,4,5,5,6,6,7,7,8,8,9,9,10,10,11,11,12,12],"right_children":[2,4,6,8,10,12,14,16,18,20,22,24,26,-1,-1,-1,-1,-1,-1,-1,-1,-1,-1,-1,-1,-1,-1],"split_conditions":[1.119E2,5E-1,3.5E0,2.5E0,7.4399994E1,9.85E1,1E0,8.604804E-1,6.6E1,8.3E1,1.3E2,6.35E0,1.5E0,1.0374366E0,7.018468E-1,1.2448342E0,7.3693985E-1,1.0950263E0,1.5732328E0,1.522368E0,2.195399E-1,1.7942809E0,8.084326E-1,1.3281498E0,1.1383444E0,2.19479E0,1.6690583E0],"split_indices":[21,8,0,0,21,20,3,22,20,20,20,7,5,0,0,0,0,0,0,0,0,0,0,0,0,0,0],"split_type":[0,0,0,0,0,0,0,0,0,0,0,0,0,0,0,0,0,0,0,0,0,0,0,0,0,0,0],"sum_hessian":[8.6E1,6.7E1,1.9E1,4.1E1,2.6E1,1.6E1,3E0,3.1E1,1E1,9E0,1.7E1,3E0,1.3E1,2E0,1E0,1E1,2.1E1,3E0,7E0,6E0,3E0,1.5E1,2E0,1E0,2E0,1.2E1,1E0],"tree_param":{"num_deleted":"0","num_feature":"23","num_nodes":"27","size_leaf_vector":"0"}},{"base_weights":[1.568429E1,1.8434336E1,1.1920101E1,1.1033851E1,1.9584845E1,1.1079655E1,2.170789E1,8.135095E0,1.8261494E1,1.8610706E1,2.7364742E1,1.8258673E1,1.015193E1,2.0072042E1,2.4921309E1,6.4195223E0,9.272475E0,1.5765E1,2.0712374E1,1.9575363E1,6.706844E0,3.0714983E1,2.2307283E1,2.2714432E1,1.3780082E1,1.5379368E1,9.145268E0,1.8545145E1,2.1548817E1],"categories":[],"categories_nodes":[],"categories_segments":[],"categories_sizes":[],"default_left":[true,true,true,true,true,true,true,true,true,true,true,true,true,true,false,false,false,false,false,false,false,false,false,false,false,false,false,false,false],"id":21,"left_children":[1,3,5,7,9,11,13,15,17,19,21,23,25,27,-1,-1,-1,-1,-1,-1,-1,-1,-1,-1,-1,-1,-1,-1,-1],"loss_changes":[9.31125E2,4.4222266E2,3.1200732E2,1.46336E2,3.3978125E2,2.3265576E2,1.4527954E1,9.610413E0,1.1432251E1,4.5902344E2,8.304297E1,7.908545E1,1.6278857E2,3.512207E0,0E0,0E0,0E0,0E0,0E0,0E0,0E0,0E0,0E0,0E0,0E0,0E0,0E0,0E0,0E0],"parents":[2147483647,0,0,1,1,2,2,3,3,4,4,5,5,6,6,7,7,8,8,9,9,10,10,11,11,12,12,13,13],"right_children":[2,4,6,8,10,12,14,16,18,20,22,24,26,28,-1,-1,-1,-1,-1,-1,-1,-1,-1,-1,-1,-1,-1,-1,-1],"split_conditions":[1.76E1,3.71E2,5E-1,1.695E1,1.56E1,6.652778E1,1E0,3.325E2,1E0,1.5E0,5E-1,5E-1,8.6956203E-1,5E-1,1.9934483E0,5.1349574E-1,7.417026E-1,1.2610378E0,1.6567768E0,1.5658276E0,5.3647846E-1,2.4568825E0,1.7843531E0,1.8169208E0,1.1022648E0,1.2301911E0,7.315274E-1,1.4834207E0,1.7236836E0],"split_indices":[7,2,10,7,7,17,3,2,0,13,19,1,22,5,0,0,0,0,0,0,0,0,0,0,0,0,0,0,0],"split_type":[0,0,0,0,0,0,0,0,0,0,0,0,0,0,0,0,0,0,0,0,0,0,0,0,0,0,0,0,0],"sum_hessian":[9E1,5.2E1,3.8E1,7E0,4.5E1,3.5E1,3E0,5E0,2E0,4E1,5E0,4E0,3.1E1,2E0,1E0,2E0,3E0,1E0,1E0,3.7E1,3E0,3E0,2E0,2E0,2E0,5E0,2.6E1,1E0,1E0],"tree_param":{"num_deleted":"0","num_feature":"23","num_nodes":"29","size_leaf_vector":"0"}},{"base_weights":[1.404084E1,1.1647932E1,1.8825329E1,1.697198E1,1.0234635E1,2.0495173E1,1.3094864E1,2.0738933E0,1.8212784E1,9.631561E0,2.4377132E1,2.467669E1,1.9098097E1,1.1768678E1,2.1002718E1,2.215969E1,1.538665E1,1.0437637E1,5.023313E0,2.2932827E1,2.5760592E1,1.9939953E1,2.7031107E1,1.501648E1,2.169148E1,9.927949E0,1.2682241E1],"categories":[],"categories_nodes":[],"categories_segments":[],"categories_sizes":[],"default_left":[true,true,true,true,true,true,true,false,true,true,true,true,true,true,false,false,false,false,false,false,false,false,false,false,false,false,false],"id":22,"left_children":[1,3,5,7,9,11,13,-1,15,17,19,21,23,25,-1,-1,-1,-1,-1,-1,-1,-1,-1,-1,-1,-1,-1],"loss_changes":[1.0642188E3,4.6609766E2,2.959873E2,2.4026245E2,4.173501E2,1.3903711E2,7.281555E1,0E0,1.3302539E2,1.744624E2,2.5196533E0,6.5589355E1,1.8974219E2,9.776489E0,0E0,0E0,0E0,0E0,0E0,0E0,0E0,0E0,0E0,0E0,0E0,0E0,0E0],"parents":[2147483647,0,0,1,1,2,2,3,3,4,4,5,5,6,6,8,8,9,9,10,10,11,11,12,12,13,13],"right_children":[2,4,6,8,10,12,14,-1,16,18,20,22,24,26,-1,-1,-1,-1,-1,-1,-1,-1,-1,-1,-1,-1,-1],"split_conditions":[1.023E2,5E-1,3.5E0,3.455E2,5E-1,5E-1,1E0,1.6589013E-1,1.69E1,9.1301285E1,5E-1,6.55E0,1.102E2,5.3E0,1.6800013E0,1.7725472E0,1.2307737E0,8.349036E-1,4.0181336E-1,1.8343902E0,2.0605822E0,1.594991E0,2.1622105E0,1.2011639E0,1.7350953E0,7.941337E-1,1.0144488E0],"split_indices":[21,0,0,2,10,0,3,0,7,17,1,7,21,7,0,0,0,0,0,0,0,0,0,0,0,0,0],"split_type":[0,0,0,0,0,0,0,0,0,0,0,0,0,0,0,0,0,0,0,0,0,0,0,0,0,0,0],"sum_hessian":[9.3E1,6.2E1,3.1E1,1.3E1,4.9E1,2.4E1,7E0,1E0,1.2E1,4.7E1,2E0,6E0,1.8E1,6E0,1E0,5E0,7E0,4E1,7E0,1E0,1E0,2E0,4E0,7E0,1.1E1,2E0,4E0],"tree_param":{"num_deleted":"0","num_feature":"23","num_nodes":"27","size_leaf_vector":"0"}},{"base_weights":[1.3074326E1,1.5926035E1,9.198151E0,9.138002E0,1.6792059E1,1.28184805E1,7.9487605E0,6.74599E0,1.3907585E1,1.761299E1,9.890865E0,1.4662758E1,5.43222E0,8.606243E0,-9.268501E-1,5.2890787E0,8.194422E0,1.3279392E1,1.4501005E1,1.9720846E1,1.3816185E1,1.2719953E1,-1.4288439E0,1.8458035E1,1.2377489E1,2.1016026E0,8.749172E0,1.3971348E1,7.934216E0,-1.8446339E0,-6.6209086E-3],"categories":[],"categories_nodes":[],"categories_segments":[],"categories_sizes":[],"default_left":[true,true,true,true,true,true,true,true,true,true,true,true,true,true,true,false,false,false,false,false,false,false,false,false,false,false,false,false,false,false,false],"id":23,"left_children":[1,3,5,7,9,11,13,15,17,19,21,23,25,27,29,-1,-1,-1,-1,-1,-1,-1,-1,-1,-1,-1,-1,-1,-1,-1,-1],"loss_changes":[1.0165996E3,3.1119336E2,1.7615918E2,6.824484E1,2.658496E2,1.3605542E2,1.6926672E2,8.336151E0,2.6193237E-1,3.3546582E2,1.6024911E2,6.8832886E1,2.2075176E1,9.707764E1,1.6909664E0,0E0,0E0,0E0,0E0,0E0,0E0,0E0,0E0,0E0,0E0,0E0,0E0,0E0,0E0,0E0,0E0],"parents":[2147483647,0,0,1,1,2,2,3,3,4,4,5,5,6,6,7,7,8,8,9,9,10,10,11,11,12,12,13,13,14,14],"right_children":[2,4,6,8,10,12,14,16,18,20,22,24,26,28,30,-1,-1,-1,-1,-1,-1,-1,-1,-1,-1,-1,-1,-1,-1,-1,-1],"split_conditions":[1.76E1,3.64E2,6.987946E1,1.69E1,1.5E0,1.5E0,1.5E0,3.325E2,3.495E2,1.12E2,1.2364535E0,5E-1,5E-1,8.650212E-1,4.205E2,4.2307186E-1,6.554694E-1,1.0622147E0,1.1599312E0,1.5774647E0,1.1051526E0,1.0174654E0,-1.1429281E-1,1.4764528E0,9.900718E-1,1.6810657E-1,6.9984376E-1,1.1175641E0,6.3465565E-1,-1.4755173E-1,-5.2960456E-4],"split_indices":[7,2,17,7,13,13,5,2,2,20,22,1,1,22,2,0,0,0,0,0,0,0,0,0,0,0,0,0,0,0,0],"split_type":[0,0,0,0,0,0,0,0,0,0,0,0,0,0,0,0,0,0,0,0,0,0,0,0,0,0,0,0,0,0,0],"sum_hessian":[9.2E1,5.3E1,3.9E1,6E0,4.7E1,1E1,2.9E1,4E0,2E0,4.2E1,5E0,8E0,2E0,2.7E1,2E0,2E0,2E0,1E0,1E0,2.7E1,1.5E1,4E0,1E0,3E0,5E0,1E0,1E0,3E0,2.4E1,1E0,1E0],"tree_param":{"num_deleted":"0","num_feature":"23","num_nodes":"31","size_leaf_vector":"0"}},{"base_weights":[1.2529339E1,8.953878E0,1.4554974E1,7.976387E0,1.6275484E1,1.9545534E1,1.3673369E1,1.2444256E1,6.060328E0,1.4861432E1,2.0469929E1,2.4929998E1,1.684403E1,4.0078793E0,1.4067653E1,1.9565176E1,1.0403438E1,1.2638706E1,4.5108376E0,1.4009101E1,1.6526823E1,2.2770811E1,2.918077E1,2.5248869E1,1.5151273E1,-2.407023E0,1.0412937E1,1.46877365E1,8.606278E0],"categories":[],"categories_nodes":[],"categories_segments":[],"categories_sizes":[],"default_left":[true,true,true,true,true,true,true,true,true,true,false,true,true,true,true,false,false,false,false,false,false,false,false,false,false,false,false,false,false],"id":24,"left_children":[1,3,5,7,9,11,13,15,17,19,-1,21,23,25,27,-1,-1,-1,-1,-1,-1,-1,-1,-1,-1,-1,-1,-1,-1],"loss_changes":[6.804922E2,2.4302197E2,2.633213E2,2.566515E2,2.2975098E1,1.298977E2,1.9422363E2,1.3031653E2,2.1393658E2,3.6797485E0,0E0,2.589148E1,8.4438965E1,8.23419E1,1.656289E2,0E0,0E0,0E0,0E0,0E0,0E0,0E0,0E0,0E0,0E0,0E0,0E0,0E0,0E0],"parents":[2147483647,0,0,1,1,2,2,3,3,4,4,5,5,6,6,7,7,8,8,9,9,11,11,12,12,13,13,14,14],"right_children":[2,4,6,8,10,12,14,16,18,20,-1,22,24,26,28,-1,-1,-1,-1,-1,-1,-1,-1,-1,-1,-1,-1,-1,-1],"split_conditions":[8.37E1,5E-1,1.5E-1,6.987946E1,1E0,9.92E1,1.8333334E-1,2.0599998E1,5E-1,5E-1,1.6373837E0,2.5E0,5E-1,5E-1,1.5E0,1.5650127E0,8.321679E-1,1.0109664E0,3.608206E-1,1.1205839E0,1.3219757E0,1.8214306E0,2.3341613E0,2.0196497E0,1.2119459E0,-1.9253707E-1,8.329278E-1,1.1748677E0,6.884137E-1],"split_indices":[21,9,19,17,3,21,19,7,0,5,0,0,0,1,13,0,0,0,0,0,0,0,0,0,0,0,0,0,0],"split_type":[0,0,0,0,0,0,0,0,0,0,0,0,0,0,0,0,0,0,0,0,0,0,0,0,0,0,0,0,0],"sum_hessian":[9.4E1,3.4E1,6E1,3E1,4E0,9E0,5.1E1,9E0,2.1E1,3E0,1E0,3E0,6E0,2E0,4.9E1,2E0,7E0,4E0,1.7E1,2E0,1E0,2E0,1E0,1E0,5E0,1E0,1E0,4.4E1,5E0],"tree_param":{"num_deleted":"0","num_feature":"23","num_nodes":"29","size_leaf_vector":"0"}},{"base_weights":[1.1690693E1,9.825011E0,1.5420925E1,9.300736E0,1.7154432E1,1.6753628E1,8.752353E0,1.3435208E1,8.289396E0,1.9923021E1,1.4364389E1,1.9923521E1,1.3824298E1,9.377461E0,6.234656E0,1.1285066E1,1.7188538E1,1.0645023E1,5.0649233E0,2.0959665E1,1.8836624E1,1.3484728E1,1.520814E1,1.8456758E1,2.4304754E1,6.402012E0,1.5172032E1,6.89711E0,1.0197777E1],"categories":[],"categories_nodes":[],"categories_segments":[],"categories_sizes":[],"default_left":[true,true,true,true,true,true,true,true,true,true,true,true,true,true,false,false,false,false,false,false,false,false,false,false,false,false,false,false,false],"id":25,"left_children":[1,3,5,7,9,11,13,15,17,19,21,23,25,27,-1,-1,-1,-1,-1,-1,-1,-1,-1,-1,-1,-1,-1,-1,-1],"loss_changes":[6.259844E2,2.3016504E2,2.6626904E2,2.3388574E2,3.0197998E1,2.3147266E2,7.7249756E0,8.830408E1,3.4168652E2,1.2640991E0,9.703369E-1,7.600488E1,1.2982178E2,7.9658203E0,0E0,0E0,0E0,0E0,0E0,0E0,0E0,0E0,0E0,0E0,0E0,0E0,0E0,0E0,0E0],"parents":[2147483647,0,0,1,1,2,2,3,3,4,4,5,5,6,6,7,7,8,8,9,9,10,10,11,11,12,12,13,13],"right_children":[2,4,6,8,10,12,14,16,18,20,22,24,26,28,-1,-1,-1,-1,-1,-1,-1,-1,-1,-1,-1,-1,-1,-1,-1],"split_conditions":[1.03100006E2,5E-1,3.5E0,5E-1,7E-1,5.5E-1,1E0,8.650752E1,9.717299E-1,1E0,5E-1,1.035E1,5.95E0,5E-1,4.987083E-1,9.026891E-1,1.3749061E0,8.5149235E-1,4.0514174E-1,1.6765575E0,1.506736E0,1.0786395E0,1.2164947E0,1.4763508E0,1.9441302E0,5.120951E-1,1.2136065E0,5.516978E-1,8.157172E-1],"split_indices":[21,9,0,0,19,19,5,17,22,3,5,7,7,11,0,0,0,0,0,0,0,0,0,0,0,0,0,0,0],"split_type":[0,0,0,0,0,0,0,0,0,0,0,0,0,0,0,0,0,0,0,0,0,0,0,0,0,0,0,0,0],"sum_hessian":[9E1,6E1,3E1,5.6E1,4E0,2.5E1,5E0,1.1E1,4.5E1,2E0,2E0,1.2E1,1.3E1,4E0,1E0,7E0,4E0,2.6E1,1.9E1,1E0,1E0,1E0,1E0,9E0,3E0,2E0,1.1E1,1E0,3E0],"tree_param":{"num_deleted":"0","num_feature":"23","num_nodes":"29","size_leaf_vector":"0"}},{"base_weights":[1.0458293E1,6.984546E0,1.2082761E1,7.7258253E0,-3.019809E0,7.654198E0,1.3145178E1,4.20242E0,9.797487E0,-3.961233E0,-2.0707273E0,4.2847886E0,8.77582E0,1.00462475E1,1.4602649E1,6.537949E0,-1.2480065E0,3.1822345E0,1.2552595E1,5.7060146E0,3.5678785E0,1.0823092E1,7.1333904E0,6.1564393E0,1.3932905E1,1.7575392E1,1.1627753E1],"categories":[],"categories_nodes":[],"categories_segments":[],"categories_sizes":[],"default_left":[true,true,true,true,true,true,true,true,true,false,false,true,true,true,true,false,false,false,false,false,false,false,false,false,false,false,false],"id":26,"left_children":[1,3,5,7,9,11,13,15,17,-1,-1,19,21,23,25,-1,-1,-1,-1,-1,-1,-1,-1,-1,-1,-1,-1],"loss_changes":[5.133135E2,2.1514185E2,2.9146582E2,1.9699475E2,1.7679005E0,4.526422E1,2.2547168E2,1.2734917E2,3.0978113E2,0E0,0E0,3.0071182E0,3.0075684E1,2.4171448E2,3.0018994E2,0E0,0E0,0E0,0E0,0E0,0E0,0E0,0E0,0E0,0E0,0E0,0E0],"parents":[2147483647,0,0,1,1,2,2,3,3,4,4,5,5,6,6,7,7,8,8,11,11,12,12,13,13,14,14],"right_children":[2,4,6,8,10,12,14,16,18,-1,-1,20,22,24,26,-1,-1,-1,-1,-1,-1,-1,-1,-1,-1,-1,-1],"split_conditions":[7.7399994E1,1.2373664E0,3.74E2,3.5000002E-1,4.08E2,3.445E2,7.246698E-1,4.19E2,3.64E2,-3.1685787E-1,-1.6563688E-1,5E-1,3.565E2,1.126E2,5.5E-1,5.2296865E-1,-9.982768E-2,2.5454602E-1,1.0040784E0,4.5642245E-1,2.8539357E-1,8.65736E-1,5.705978E-1,4.924518E-1,1.1144891E0,1.4058505E0,9.301006E-1],"split_indices":[21,22,2,19,2,2,22,2,2,0,0,0,2,21,19,0,0,0,0,0,0,0,0,0,0,0,0],"split_type":[0,0,0,0,0,0,0,0,0,0,0,0,0,0,0,0,0,0,0,0,0,0,0,0,0,0,0],"sum_hessian":[9.1E1,2.9E1,6.2E1,2.7E1,2E0,1.2E1,5E1,1E1,1.7E1,1E0,1E0,3E0,9E0,1.6E1,3.4E1,7E0,3E0,5E0,1.2E1,1E0,2E0,4E0,5E0,8E0,8E0,1.7E1,1.7E1],"tree_param":{"num_deleted":"0","num_feature":"23","num_nodes":"27","size_leaf_vector":"0"}},{"base_weights":[9.397168E0,1.1189234E1,7.0363455E0,1.636859E1,1.0287634E1,1.0842731E1,5.8077E0,2.2494785E1,1.4317994E1,7.5282946E0,1.19043865E1,1.1958126E1,7.9926634E-1,4.608818E0,9.915026E0,2.0332714E1,2.4600698E1,1.8671535E1,1.21309E1,4.054599E0,1.3892379E1,1.7822603E1,1.035873E1,8.77143E0,1.5933506E1,2.2027092E0,8.617261E0,1.1885109E1,-1.9055018E0],"categories":[],"categories_nodes":[],"categories_segments":[],"categories_sizes":[],"default_left":[true,true,true,true,true,true,true,true,true,true,true,true,false,true,true,false,false,false,false,false,false,false,false,false,false,false,false,false,false],"id":27,"left_children":[1,3,5,7,9,11,13,15,17,19,21,23,-1,25,27,-1,-1,-1,-1,-1,-1,-1,-1,-1,-1,-1,-1,-1,-1],"loss_changes":[4.0173242E2,2.5175146E2,1.9159668E2,9.972095E1,2.0499854E2,1.1202661E2,1.5254639E2,7.862732E0,5.658374E1,3.757293E2,2.6483594E2,1.13694214E2,0E0,2.3144913E2,1.6312805E2,0E0,0E0,0E0,0E0,0E0,0E0,0E0,0E0,0E0,0E0,0E0,0E0,0E0,0E0],"parents":[2147483647,0,0,1,1,2,2,3,3,4,4,5,5,6,6,7,7,8,8,9,9,10,10,11,11,13,13,14,14],"right_children":[2,4,6,8,10,12,14,16,18,20,22,24,-1,26,28,-1,-1,-1,-1,-1,-1,-1,-1,-1,-1,-1,-1,-1,-1],"split_conditions":[1.76E1,1.5E-1,6.987946E1,9.8100006E1,7.31481E-1,5E-1,2.3599998E1,2.5E0,5E-1,1.1161875E2,3.5000002E-1,1.5E0,6.393308E-2,7.93E1,2.675E1,1.6264079E0,1.9678028E0,1.4935306E0,9.7034717E-1,3.243262E-1,1.1112473E0,1.4256248E0,8.285918E-1,7.0162416E-1,1.2745165E0,1.7619407E-1,6.892922E-1,9.506864E-1,-1.5242054E-1],"split_indices":[7,19,17,21,22,4,7,0,0,17,19,0,0,21,7,0,0,0,0,0,0,0,0,0,0,0,0,0,0],"split_type":[0,0,0,0,0,0,0,0,0,0,0,0,0,0,0,0,0,0,0,0,0,0,0,0,0,0,0,0,0],"sum_hessian":[9.5E1,5.4E1,4.1E1,8E0,4.6E1,1E1,3.1E1,2E0,6E0,1.7E1,2.9E1,9E0,1E0,2.4E1,7E0,1E0,1E0,2E0,4E0,1.1E1,6E0,6E0,2.3E1,5E0,4E0,1.5E1,9E0,6E0,1E0],"tree_param":{"num_deleted":"0","num_feature":"23","num_nodes":"29","size_leaf_vector":"0"}},{"base_weights":[8.618115E0,1.0162028E1,6.7146697E0,1.1194783E1,6.217127E0,6.4193177E0,1.907244E1,1.2106606E1,5.721066E0,1.1954356E1,4.06259E0,5.9481215E0,1.2534782E1,9.947197E0,1.5127609E1,2.5132866E0,1.2125423E1,1.5624912E1,4.5924773E0,7.368872E-1,6.056621E0,6.29844E0,-5.324773E-1,1.0009579E1,1.3783262E1],"categories":[],"categories_nodes":[],"categories_segments":[],"categories_sizes":[],"default_left":[true,true,true,true,true,true,false,true,true,true,true,true,true,false,false,false,false,false,false,false,false,false,false,false,false],"id":28,"left_children":[1,3,5,7,9,11,-1,13,15,17,19,21,23,-1,-1,-1,-1,-1,-1,-1,-1,-1,-1,-1,-1],"loss_changes":[2.8195508E2,2.157622E2,1.5664526E2,2.0946143E2,1.3587915E2,1.2084509E2,0E0,2.3448633E2,1.23235794E2,8.095212E1,5.3056915E1,8.855554E1,9.118164E0,0E0,0E0,0E0,0E0,0E0,0E0,0E0,0E0,0E0,0E0,0E0,0E0],"parents":[2147483647,0,0,1,1,2,2,3,3,4,4,5,5,7,7,8,8,9,9,10,10,11,11,12,12],"right_children":[2,4,6,8,10,12,-1,14,16,18,20,22,24,-1,-1,-1,-1,-1,-1,-1,-1,-1,-1,-1,-1],"split_conditions":[1.745E1,3.5E0,4.5E0,1.5E0,5E-1,5E-1,1.5255989E0,1.5E0,6.333333E-1,4.14E2,1.275E2,9.1301285E1,5E-1,7.956734E-1,1.2100531E0,2.0103706E-1,9.699091E-1,1.2498322E0,3.6735094E-1,5.8943395E-2,4.8446736E-1,5.038104E-1,-4.2592704E-2,8.006633E-1,1.1025192E0],"split_indices":[7,0,6,13,11,9,0,0,19,2,20,17,10,0,0,0,0,0,0,0,0,0,0,0,0],"split_type":[0,0,0,0,0,0,0,0,0,0,0,0,0,0,0,0,0,0,0,0,0,0,0,0,0],"sum_hessian":[9.6E1,5.3E1,4.3E1,4.2E1,1.1E1,4.2E1,1E0,3.6E1,6E0,3E0,8E0,3.9E1,3E0,2.1E1,1.5E1,4E0,2E0,2E0,1E0,3E0,5E0,3.7E1,2E0,1E0,2E0],"tree_param":{"num_deleted":"0","num_feature":"23","num_nodes":"25","size_leaf_vector":"0"}},{"base_weights":[8.297294E0,7.0841E0,1.1015672E1,6.819328E0,1.5405459E1,1.6199429E1,9.934144E0,7.615929E0,3.0526893E0,1.3221774E1,1.7550642E1,1.2190356E1,1.885974E1,7.584328E0,1.2708837E1,8.55165E0,3.6847334E0,1.9307325E0,8.092725E0,1.0892514E1,1.3457704E1,1.9729658E1,1.8400656E1,4.4715447E0,1.2560037E1,6.931996E0,1.3284632E1],"categories":[],"categories_nodes":[],"categories_segments":[],"categories_sizes":[],"default_left":[true,true,true,true,true,true,true,true,true,false,false,true,true,true,true,false,false,false,false,false,false,false,false,false,false,false,false],"id":29,"left_children":[1,3,5,7,9,11,13,15,17,-1,-1,19,21,23,25,-1,-1,-1,-1,-1,-1,-1,-1,-1,-1,-1,-1],"loss_changes":[3.0981543E2,1.429524E2,1.621936E2,1.8897998E2,8.796967E0,5.277527E1,1.5625317E2,1.9121094E2,6.217546E1,0E0,0E0,2.924408E0,2.874756E-1,2.0124402E2,3.6364624E1,0E0,0E0,0E0,0E0,0E0,0E0,0E0,0E0,0E0,0E0,0E0,0E0],"parents":[2147483647,0,0,1,1,2,2,3,3,4,4,5,5,6,6,7,7,8,8,11,11,12,12,13,13,14,14],"right_children":[2,4,6,8,10,12,14,16,18,-1,-1,20,22,24,26,-1,-1,-1,-1,-1,-1,-1,-1,-1,-1,-1,-1],"split_conditions":[1.03100006E2,4.25E0,5E-1,1.5E0,3E0,6.55E0,5E-1,1.04E2,2.5E0,1.0576059E0,1.4038707E0,3.95E2,4.12E2,1.1429286E2,1.039E2,6.84044E-1,2.9474077E-1,1.5443873E-1,6.473347E-1,8.71289E-1,1.0764778E0,1.5781696E0,1.4718632E0,3.5767755E-1,1.0046737E0,5.5448836E-1,1.0626339E0],"split_indices":[21,6,0,13,0,7,13,20,0,0,0,2,2,17,21,0,0,0,0,0,0,0,0,0,0,0,0],"split_type":[0,0,0,0,0,0,0,0,0,0,0,0,0,0,0,0,0,0,0,0,0,0,0,0,0,0,0],"sum_hessian":[9.4E1,6.5E1,2.9E1,6.3E1,2E0,5E0,2.4E1,5.2E1,1.1E1,1E0,1E0,2E0,3E0,1.3E1,1.1E1,4.2E1,1E1,9E0,2E0,1E0,1E0,1E0,2E0,8E0,5E0,1E0,1E1],"tree_param":{"num_deleted":"0","num_feature":"23","num_nodes":"27","size_leaf_vector":"0"}},{"base_weights":[7.953404E0,6.382962E0,1.1093433E1,-2.152381E0,6.8661757E0,1.3082189E1,8.796635E0,-5.3551226E0,-5.4626167E-1,1.075695E1,6.0697675E0,1.3759471E1,3.58945E0,1.6786067E0,1.0090135E1,-5.0708044E-1,-5.8394545E-1,8.259331E0,1.2749899E1,3.715626E0,8.218558E0,1.265443E1,1.7797348E1,1.0023392E1,-6.6702213E0,1.2273255E1,4.263069E0],"categories":[],"categories_nodes":[],"categories_segments":[],"categories_sizes":[],"default_left":[true,true,true,true,true,true,true,false,true,true,true,true,false,true,true,false,false,false,false,false,false,false,false,false,false,false,false],"id":30,"left_children":[1,3,5,7,9,11,13,-1,15,17,19,21,-1,23,25,-1,-1,-1,-1,-1,-1,-1,-1,-1,-1,-1,-1],"loss_changes":[4.1405615E2,2.3101416E2,1.2761865E2,1.5436684E1,1.6407056E2,9.6329346E1,1.1967224E2,0E0,2.0674467E-3,4.4545288E1,2.2251123E2,6.191284E1,0E0,1.3967967E2,1.3983191E2,0E0,0E0,0E0,0E0,0E0,0E0,0E0,0E0,0E0,0E0,0E0,0E0],"parents":[2147483647,0,0,1,1,2,2,3,3,4,4,5,5,6,6,8,8,9,9,10,10,11,11,13,13,14,14],"right_children":[2,4,6,8,10,12,14,-1,16,18,20,22,-1,24,26,-1,-1,-1,-1,-1,-1,-1,-1,-1,-1,-1,-1],"split_conditions":[1.023E2,7.25E0,6.166667E-1,5E-1,6.987946E1,3.5E0,6.5E-1,-4.283547E-1,2.5E0,1.5E0,7.7399994E1,1.0620162E0,2.8711906E-1,5E-1,1.15E2,-4.0561218E-2,-4.6709627E-2,6.6066146E-1,1.0198607E0,2.9721186E-1,6.574001E-1,1.0122242E0,1.4236047E0,8.017682E-1,-5.335491E-1,9.817341E-1,3.4100166E-1],"split_indices":[21,7,19,13,17,0,19,0,0,0,21,22,0,0,21,0,0,0,0,0,0,0,0,0,0,0,0],"split_type":[0,0,0,0,0,0,0,0,0,0,0,0,0,0,0,0,0,0,0,0,0,0,0,0,0,0,0],"sum_hessian":[8.4E1,5.6E1,2.8E1,3E0,5.3E1,1.5E1,1.3E1,1E0,2E0,9E0,4.4E1,1.4E1,1E0,2E0,1.1E1,1E0,1E0,4E0,5E0,2.1E1,2.3E1,1.1E1,3E0,1E0,1E0,8E0,3E0],"tree_param":{"num_deleted":"0","num_feature":"23","num_nodes":"27","size_leaf_vector":"0"}},{"base_weights":[6.708017E0,5.543656E0,8.930296E0,-1.9806515E0,5.9199405E0,1.012063E1,4.507002E0,-4.927837E0,-5.026836E-1,1.8948848E0,6.4514346E0,1.1696288E1,7.597274E0,3.34354E0,1.1461924E1,-4.6662357E-1,-5.373546E-1,3.138349E0,-1.2137444E0,9.079722E0,5.5074224E0,1.0613655E1,1.6374926E1,1.2622504E1,5.4398518E0,4.3781986E0,-1.8276361E0],"categories":[],"categories_nodes":[],"categories_segments":[],"categories_sizes":[],"default_left":[true,true,true,true,true,true,true,false,true,true,true,true,true,true,false,false,false,false,false,false,false,false,false,false,false,false,false],"id":31,"left_children":[1,3,5,7,9,11,13,-1,15,17,19,21,23,25,-1,-1,-1,-1,-1,-1,-1,-1,-1,-1,-1,-1,-1],"loss_changes":[2.4828369E2,1.7840771E2,1.7364893E2,1.3071479E1,1.283313E2,1.0315991E2,5.6564987E1,0E0,1.7396212E-3,2.7077711E1,1.313794E2,8.06189E1,1.08268555E2,3.21361E1,0E0,0E0,0E0,0E0,0E0,0E0,0E0,0E0,0E0,0E0,0E0,0E0,0E0],"parents":[2147483647,0,0,1,1,2,2,3,3,4,4,5,5,6,6,8,8,9,9,10,10,11,11,12,12,13,13],"right_children":[2,4,6,8,10,12,14,-1,16,18,20,22,24,26,-1,-1,-1,-1,-1,-1,-1,-1,-1,-1,-1,-1,-1],"split_conditions":[1.023E2,7.25E0,3.5E0,5E-1,3.455E2,6.166667E-1,5E-1,-3.9417624E-1,2.5E0,2.08E1,3.86E2,1.0620162E0,5E-1,1E0,9.168359E-1,-3.7325084E-2,-4.2982835E-2,2.5103563E-1,-9.708706E-2,7.262843E-1,4.4053712E-1,8.4898317E-1,1.3098255E0,1.0096705E0,4.3513215E-1,3.5021085E-1,-1.4619209E-1],"split_indices":[21,7,0,13,2,19,13,0,0,7,2,22,0,3,0,0,0,0,0,0,0,0,0,0,0,0,0],"split_type":[0,0,0,0,0,0,0,0,0,0,0,0,0,0,0,0,0,0,0,0,0,0,0,0,0,0,0],"sum_hessian":[9.6E1,6.3E1,3.3E1,3E0,6E1,2.6E1,7E0,1E0,2E0,7E0,5.3E1,1.6E1,1E1,6E0,1E0,1E0,1E0,5E0,2E0,1.4E1,3.9E1,1.3E1,3E0,3E0,7E0,5E0,1E0],"tree_param":{"num_deleted":"0","num_feature":"23","num_nodes":"27","size_leaf_vector":"0"}},{"base_weights":[6.206982E0,4.4998894E0,7.6839843E0,4.116947E0,1.2717679E1,1.1405219E1,6.684967E0,3.5499341E0,9.639625E0,1.0710039E1,1.469351E1,5.513445E0,1.3612208E1,1.9368172E1,6.3666945E0,4.152701E0,-5.48879E-1,8.808186E0,1.2105657E1,2.0419905E0,7.244394E0,1.8771114E1,1.28687725E1,5.614338E0,1.06259165E1],"categories":[],"categories_nodes":[],"categories_segments":[],"categories_sizes":[],"default_left":[true,true,true,true,true,true,true,true,true,false,false,true,true,false,true,false,false,false,false,false,false,false,false,false,false],"id":32,"left_children":[1,3,5,7,9,11,13,15,17,-1,-1,19,21,-1,23,-1,-1,-1,-1,-1,-1,-1,-1,-1,-1],"loss_changes":[2.4449194E2,1.41487E2,1.9313062E2,1.3457202E2,7.5470276E0,1.4287646E2,1.6520398E2,9.636688E1,7.937439E0,0E0,0E0,1.8003525E1,3.0084595E1,0E0,1.2803491E2,0E0,0E0,0E0,0E0,0E0,0E0,0E0,0E0,0E0,0E0],"parents":[2147483647,0,0,1,1,2,2,3,3,4,4,5,5,6,6,7,7,8,8,11,11,12,12,14,14],"right_children":[2,4,6,8,10,12,14,16,18,-1,-1,20,22,-1,24,-1,-1,-1,-1,-1,-1,-1,-1,-1,-1],"split_conditions":[8.73E1,4.25E0,5E-1,5E-1,3E0,3.785E2,1.6666668E-2,3.5E0,1E0,8.566929E-1,1.1753296E0,3.45E2,3.835E2,1.5492544E0,4.425E2,3.3217335E-1,-4.3904673E-2,7.045642E-1,9.6832794E-1,1.6333823E-1,5.7947695E-1,1.501496E0,1.0293694E0,4.4908926E-1,8.4996396E-1],"split_indices":[21,6,0,9,0,2,19,0,3,0,0,2,2,0,2,0,0,0,0,0,0,0,0,0,0],"split_type":[0,0,0,0,0,0,0,0,0,0,0,0,0,0,0,0,0,0,0,0,0,0,0,0,0],"sum_hessian":[9.7E1,4.5E1,5.2E1,4.3E1,2E0,1.1E1,4.1E1,3.9E1,4E0,1E0,1E0,3E0,8E0,1E0,4E1,3.4E1,5E0,3E0,1E0,1E0,2E0,1E0,7E0,3.4E1,6E0],"tree_param":{"num_deleted":"0","num_feature":"23","num_nodes":"25","size_leaf_vector":"0"}},{"base_weights":[5.620792E0,6.8201585E0,3.367087E0,7.5943656E0,3.593376E0,8.588941E0,2.6461492E0,1.0072864E1,6.316894E0,2.736315E0,1.2990616E1,3.5088902E0,1.0277919E1,1.2624365E0,6.9929395E0,1.4274915E1,9.17003E0,7.0998816E0,6.3931423E-1,6.1005654E0,1.987204E0,8.641421E0,1.3521106E1,-7.4569E-1,4.1624813E0,1.0084561E1,-7.3898184E-1],"categories":[],"categories_nodes":[],"categories_segments":[],"categories_sizes":[],"default_left":[true,true,true,true,true,true,true,true,true,true,false,false,true,true,true,false,false,false,false,false,false,false,false,false,false,false,false],"id":33,"left_children":[1,3,5,7,9,11,13,15,17,19,-1,-1,21,23,25,-1,-1,-1,-1,-1,-1,-1,-1,-1,-1,-1,-1],"loss_changes":[2.5673486E2,1.5482495E2,1.2418393E2,1.5815723E2,9.6577286E1,3.4249878E1,1.7441837E2,6.417322E1,1.4669922E2,2.7697083E1,0E0,0E0,1.5640869E1,1.2814322E2,1.6740881E2,0E0,0E0,0E0,0E0,0E0,0E0,0E0,0E0,0E0,0E0,0E0,0E0],"parents":[2147483647,0,0,1,1,2,2,3,3,4,4,5,5,6,6,7,7,8,8,9,9,12,12,13,13,14,14],"right_children":[2,4,6,8,10,12,14,16,18,20,-1,-1,22,24,26,-1,-1,-1,-1,-1,-1,-1,-1,-1,-1,-1,-1],"split_conditions":[1.895E1,3.5E0,6.652778E1,3.3333334E-1,5E-1,4.125E2,7.833333E-1,8.8E1,1.5E0,5E-1,1.0391155E0,2.806751E-1,2.5E0,7.7399994E1,8.8E1,1.1418463E0,7.33508E-1,5.6791747E-1,5.113856E-2,4.8798245E-1,1.5895587E-1,6.9122475E-1,1.0815493E0,-5.9647527E-2,3.3295566E-1,8.066611E-1,-5.9110943E-2],"split_indices":[7,0,17,19,9,2,19,20,13,11,0,0,0,21,20,0,0,0,0,0,0,0,0,0,0,0,0],"split_type":[0,0,0,0,0,0,0,0,0,0,0,0,0,0,0,0,0,0,0,0,0,0,0,0,0,0,0],"sum_hessian":[9.5E1,6.2E1,3.3E1,5E1,1.2E1,4E0,2.9E1,1.7E1,3.3E1,1.1E1,1E0,1E0,3E0,2.2E1,7E0,3E0,1.4E1,2.9E1,4E0,2E0,9E0,2E0,1E0,1.3E1,9E0,5E0,2E0],"tree_param":{"num_deleted":"0","num_feature":"23","num_nodes":"27","size_leaf_vector":"0"}},{"base_weights":[4.9714146E0,6.0053267E0,2.765414E0,1.7091097E1,5.8286896E0,1.5472106E0,5.200813E0,4.1817675E0,6.5944095E0,2.7315156E0,-2.005267E0,7.505288E0,-1.7801979E-1,3.5548537E0,1.6054478E1,7.948821E0,4.065264E0,5.0613527E0,1.1773027E0,-4.416736E0,7.627449E0,8.537797E0,1.3042655E0,5.025775E0,-2.7830079E0],"categories":[],"categories_nodes":[],"categories_segments":[],"categories_sizes":[],"default_left":[true,true,true,false,true,true,true,true,true,true,true,true,true,false,false,false,false,false,false,false,false,false,false,false,false],"id":34,"left_children":[1,3,5,-1,7,9,11,13,15,17,19,21,23,-1,-1,-1,-1,-1,-1,-1,-1,-1,-1,-1,-1],"loss_changes":[2.1435938E2,1.2507495E2,8.899074E1,0E0,7.93811E1,8.416862E1,1.2398917E2,1.4873672E2,1.472229E2,5.4309242E1,1.16286644E2,4.4805084E1,4.073592E1,0E0,0E0,0E0,0E0,0E0,0E0,0E0,0E0,0E0,0E0,0E0,0E0],"parents":[2147483647,0,0,1,1,2,2,4,4,5,5,6,6,7,7,8,8,9,9,10,10,11,11,12,12],"right_children":[2,4,6,-1,8,10,12,14,16,18,20,22,24,-1,-1,-1,-1,-1,-1,-1,-1,-1,-1,-1,-1],"split_conditions":[1.895E1,1.6666668E-2,2.3599998E1,1.3671119E0,7.31481E-1,4.098913E2,1.5E0,1.25E0,7.166667E-1,4.166667E-1,4.37E2,4.34E2,2.47E1,2.843517E-1,1.284193E0,6.358239E-1,3.251793E-1,4.0485615E-1,9.4172105E-2,-3.5329345E-1,6.1011744E-1,6.829359E-1,1.0432782E-1,4.0201026E-1,-2.22612E-1],"split_indices":[7,19,7,0,22,2,13,6,19,19,2,2,7,0,0,0,0,0,0,0,0,0,0,0,0],"split_type":[0,0,0,0,0,0,0,0,0,0,0,0,0,0,0,0,0,0,0,0,0,0,0,0,0],"sum_hessian":[9.4E1,6.4E1,3E1,1E0,6.3E1,2E1,1E1,2E1,4.3E1,1.5E1,5E0,7E0,3E0,1.9E1,1E0,2.8E1,1.5E1,6E0,9E0,4E0,1E0,6E0,1E0,1E0,2E0],"tree_param":{"num_deleted":"0","num_feature":"23","num_nodes":"25","size_leaf_vector":"0"}},{"base_weights":[5.1254077E0,6.1840973E0,3.1011317E0,2.4430761E0,6.6354733E0,2.8064384E0,1.2794663E1,9.08522E-1,4.4866457E0,1.0977228E1,5.940276E0,1.10642E0,5.112988E0,3.01633E-1,1.5142096E0,4.6921635E0,4.0648103E0,1.0243826E1,1.6072613E1,2.3682897E0,6.94754E0,3.0465475E-1,5.3786464E0,2.6020694E0,7.622064E0],"categories":[],"categories_nodes":[],"categories_segments":[],"categories_sizes":[],"default_left":[true,true,true,true,true,true,false,true,true,true,true,true,true,false,false,false,false,false,false,false,false,false,false,false,false],"id":35,"left_children":[1,3,5,7,9,11,-1,13,15,17,19,21,23,-1,-1,-1,-1,-1,-1,-1,-1,-1,-1,-1,-1],"loss_changes":[2.1212134E2,1.0972168E2,9.7040344E1,2.1948685E1,1.749082E2,1.2939368E2,0E0,1.4698687E0,2.1147919E-1,2.9490417E1,1.7986328E2,6.508482E1,8.8166016E1,0E0,0E0,0E0,0E0,0E0,0E0,0E0,0E0,0E0,0E0,0E0,0E0],"parents":[2147483647,0,0,1,1,2,2,3,3,4,4,5,5,7,7,8,8,9,9,10,10,11,11,12,12],"right_children":[2,4,6,8,10,12,-1,14,16,18,20,22,24,-1,-1,-1,-1,-1,-1,-1,-1,-1,-1,-1,-1],"split_conditions":[1.895E1,3.64E2,4.5E0,1.69E1,5E-1,2.355E1,1.0234414E0,2.5E0,2E0,1.3134114E0,1.5E0,8.8399994E1,4.6666667E-1,2.4127536E-2,1.2112119E-1,3.753248E-1,3.2514298E-1,8.1940067E-1,1.2856436E0,1.894388E-1,5.557317E-1,2.4369245E-2,4.3023637E-1,2.0813878E-1,6.096867E-1],"split_indices":[7,2,6,7,0,7,0,0,0,22,0,21,19,0,0,0,0,0,0,0,0,0,0,0,0],"split_type":[0,0,0,0,0,0,0,0,0,0,0,0,0,0,0,0,0,0,0,0,0,0,0,0,0],"sum_hessian":[9.9E1,6.5E1,3.4E1,7E0,5.8E1,3.3E1,1E0,4E0,3E0,8E0,5E1,1.9E1,1.4E1,2E0,2E0,2E0,1E0,7E0,1E0,1.1E1,3.9E1,1.6E1,3E0,7E0,7E0],"tree_param":{"num_deleted":"0","num_feature":"23","num_nodes":"25","size_leaf_vector":"0"}},{"base_weights":[4.702671E0,6.8389435E0,4.207486E0,-1.0645528E0,7.7687945E0,1.5770502E0,5.171871E0,6.5425026E-1,-2.7808418E0,3.290452E0,8.365251E0,9.6730024E-1,1.4347366E1,7.6035824E0,4.1293163E0,1.665002E0,4.9075704E0,4.7104583E0,9.277767E0,-3.208182E-1,5.0874095E0,1.1431782E1,3.7732596E0,3.580752E0,8.184852E0],"categories":[],"categories_nodes":[],"categories_segments":[],"categories_sizes":[],"default_left":[true,true,true,true,true,true,true,false,false,true,true,true,false,true,true,false,false,false,false,false,false,false,false,false,false],"id":36,"left_children":[1,3,5,7,9,11,13,-1,-1,15,17,19,-1,21,23,-1,-1,-1,-1,-1,-1,-1,-1,-1,-1],"loss_changes":[1.0677197E2,1.3967236E2,2.079989E2,5.9121246E0,4.534558E1,1.712901E2,1.5203784E2,0E0,0E0,5.2423477E0,4.9923218E1,1.1146895E2,0E0,2.6386523E2,9.336908E1,0E0,0E0,0E0,0E0,0E0,0E0,0E0,0E0,0E0,0E0],"parents":[2147483647,0,0,1,1,2,2,3,3,4,4,5,5,6,6,9,9,10,10,11,11,13,13,14,14],"right_children":[2,4,6,8,10,12,14,-1,-1,16,18,20,-1,22,24,-1,-1,-1,-1,-1,-1,-1,-1,-1,-1],"split_conditions":[5E-1,3.455E2,1.5E0,3.41E2,7.261905E1,1.1537619E2,7.974995E-1,5.2333288E-2,-2.2243872E-1,4.115E2,6.720972E-1,2.5E-1,1.1476417E0,1.08E2,4.395E2,1.3318302E-1,3.9255512E-1,3.767882E-1,7.4212587E-1,-2.5662154E-2,4.069404E-1,9.144249E-1,3.0182195E-1,2.864233E-1,6.547039E-1],"split_indices":[0,2,0,2,17,17,22,0,0,2,22,6,0,20,2,0,0,0,0,0,0,0,0,0,0],"split_type":[0,0,0,0,0,0,0,0,0,0,0,0,0,0,0,0,0,0,0,0,0,0,0,0,0],"sum_hessian":[1.01E2,1.9E1,8.2E1,2E0,1.7E1,2.2E1,6E1,1E0,1E0,2E0,1.5E1,2.1E1,1E0,1.8E1,4.2E1,1E0,1E0,3E0,1.2E1,1.6E1,5E0,9E0,9E0,3.7E1,5E0],"tree_param":{"num_deleted":"0","num_feature":"23","num_nodes":"25","size_leaf_vector":"0"}},{"base_weights":[4.1852703E0,5.2303677E0,2.7379663E0,8.73251E0,4.620856E0,3.0923867E0,-3.8144255E0,1.426089E1,7.937919E0,-5.360589E-1,5.2497454E0,2.3868575E0,6.73509E0,-7.2589617E0,-3.602531E-1,9.378861E0,4.3282914E0,2.0479834E0,-4.4099116E0,6.5206604E0,3.0460992E0,6.491708E0,1.5969105E0,6.1762524E-1,7.9576364E0],"categories":[],"categories_nodes":[],"categories_segments":[],"categories_sizes":[],"default_left":[true,true,true,true,true,true,true,false,true,true,true,true,true,false,false,false,false,false,false,false,false,false,false,false,false],"id":37,"left_children":[1,3,5,7,9,11,13,-1,15,17,19,21,23,-1,-1,-1,-1,-1,-1,-1,-1,-1,-1,-1,-1],"loss_changes":[1.4063623E2,1.1517102E2,9.060492E1,3.4867737E1,1.491997E2,9.5056274E1,2.3818172E1,0E0,3.6318604E1,5.009886E1,1.1478259E2,1.0050215E2,4.487851E1,0E0,0E0,0E0,0E0,0E0,0E0,0E0,0E0,0E0,0E0,0E0,0E0],"parents":[2147483647,0,0,1,1,2,2,3,3,4,4,5,5,6,6,8,8,9,9,10,10,11,11,12,12],"right_children":[2,4,6,8,10,12,14,-1,16,18,20,22,24,-1,-1,-1,-1,-1,-1,-1,-1,-1,-1,-1,-1],"split_conditions":[1.76E1,1.5E-1,9.1301285E1,3.835E2,2.1666667E-1,7.833333E-1,3E0,1.1407244E0,2.5E0,6.5705913E-1,1.08E2,6.652778E1,1.5E0,-5.806422E-1,-2.881654E-2,7.502124E-1,3.4621876E-1,1.638176E-1,-3.5274756E-1,5.215857E-1,2.4365659E-1,5.192698E-1,1.277364E-1,4.9403664E-2,6.36529E-1],"split_indices":[7,19,17,2,19,19,0,0,0,22,20,17,0,0,0,0,0,0,0,0,0,0,0,0,0],"split_type":[0,0,0,0,0,0,0,0,0,0,0,0,0,0,0,0,0,0,0,0,0,0,0,0,0],"sum_hessian":[9.3E1,5.4E1,3.9E1,8E0,4.6E1,3.7E1,2E0,1E0,7E0,5E0,4.1E1,3.1E1,6E0,1E0,1E0,5E0,2E0,3E0,2E0,2.6E1,1.5E1,5E0,2.6E1,1E0,5E0],"tree_param":{"num_deleted":"0","num_feature":"23","num_nodes":"25","size_leaf_vector":"0"}},{"base_weights":[3.6402354E0,5.3530507E0,2.688495E0,4.8169603E0,1.1062538E1,8.9912405E0,2.4814858E0,7.707938E0,3.0816214E0,1.2548057E1,8.0675125E0,4.836946E0,1.3123006E1,2.3395565E0,1.0970079E1,9.314995E0,2.8829868E0,2.5747156E0,1.2682296E1,2.046903E0,6.4328403E0],"categories":[],"categories_nodes":[],"categories_segments":[],"categories_sizes":[],"default_left":[true,true,true,true,true,true,true,true,true,false,false,false,false,true,false,false,false,false,false,false,false],"id":38,"left_children":[1,3,5,7,9,11,13,15,17,-1,-1,-1,-1,19,-1,-1,-1,-1,-1,-1,-1],"loss_changes":[1.5972229E2,1.0700043E2,8.214374E1,1.6049023E2,1.3103058E1,3.4211044E1,7.342871E1,9.299823E1,9.726128E1,0E0,0E0,0E0,0E0,7.184381E1,0E0,0E0,0E0,0E0,0E0,0E0,0E0],"parents":[2147483647,0,0,1,1,2,2,3,3,4,4,5,5,6,6,7,7,8,8,13,13],"right_children":[2,4,6,8,10,12,14,16,18,-1,-1,-1,-1,20,-1,-1,-1,-1,-1,-1,-1],"split_conditions":[1.115E1,4.435E2,1.6666668E-2,4.085E2,5E-1,2E0,4.5E0,8.15E0,1.05E1,1.0037154E0,6.45318E-1,3.869059E-1,1.0497054E0,5E-1,8.7749344E-1,7.451037E-1,2.3060927E-1,2.0595075E-1,1.0144532E0,1.6373117E-1,5.14561E-1],"split_indices":[7,2,19,2,13,0,6,7,7,0,0,0,0,9,0,0,0,0,0,0,0],"split_type":[0,0,0,0,0,0,0,0,0,0,0,0,0,0,0,0,0,0,0,0,0],"sum_hessian":[9.8E1,3.5E1,6.3E1,3.2E1,3E0,2E0,6.1E1,1.2E1,2E1,2E0,1E0,1E0,1E0,6E1,1E0,9E0,3E0,1.9E1,1E0,5.6E1,4E0],"tree_param":{"num_deleted":"0","num_feature":"23","num_nodes":"21","size_leaf_vector":"0"}}]},"name":"gbtree"},"learner_model_param":{"base_score":"5E-1","num_class":"0","num_feature":"23"},"objective":{"name":"reg:squarederror","reg_loss_param":{"scale_pos_weight":"1"}}},"version":[1,4,2]}